{"learner":{"attributes":{"scikit_learn":"{\"_estimator_type\": \"regressor\"}"},"feature_names":["temperature","rainfall","RH","longitude","latitude","elevation"],"feature_types":["float","float","float","float","float","float"],"gradient_booster":{"model":{"gbtree_model_param":{"num_parallel_tree":"1","num_trees":"100"},"iteration_indptr":[0,1,2,3,4,5,6,7,8,9,10,11,12,13,14,15,16,17,18,19,20,21,22,23,24,25,26,27,28,29,30,31,32,33,34,35,36,37,38,39,40,41,42,43,44,45,46,47,48,49,50,51,52,53,54,55,56,57,58,59,60,61,62,63,64,65,66,67,68,69,70,71,72,73,74,75,76,77,78,79,80,81,82,83,84,85,86,87,88,89,90,91,92,93,94,95,96,97,98,99,100],"tree_info":[0,0,0,0,0,0,0,0,0,0,0,0,0,0,0,0,0,0,0,0,0,0,0,0,0,0,0,0,0,0,0,0,0,0,0,0,0,0,0,0,0,0,0,0,0,0,0,0,0,0,0,0,0,0,0,0,0,0,0,0,0,0,0,0,0,0,0,0,0,0,0,0,0,0,0,0,0,0,0,0,0,0,0,0,0,0,0,0,0,0,0,0,0,0,0,0,0,0,0,0],"trees":[{"base_weights":[-5.2817023E-7,5.8225E2,-9.229487E1,8.9267694E2,-6.937083E1,-2.7898306E1,-1.6672968E2,1.1861477E3,6.069503E2,8.730284E1,-7.938652E1,1.0391962E2,-1.6149593E2,-6.718954E1,-1.5891763E2,7.14611E2,2.0227509E3,7.502696E2,4.7560092E2,3.4851643E1,-1.06458984E2,8.9662244E2,4.225465E1,-1.919936E2,-2.4303284E1,-6.4366714E1,-1.7212369E2,1.0697123E3,4.3833954E2,2.7197285E3,1.5239288E3,6.593563E2,1.3724277E3,6.141862E2,2.8530856E2,-4.5135323E1,3.6491135E2,-1.240515E2,3.570394E1,1.1768105E3,1.7513681E2,-7.771555E1,7.645242E1,-1.06427734E2,-2.0455591E2,-5.251528E1,2.192498E2,-5.3791847E1,-4.2204033E1,-1.5783566E2,-1.8563258E2,3.4150082E2,1.4733649E2,9.017337E1,1.8751726E2,6.135314E2,1.7582692E3,3.0011197E2,8.2522565E2,2.1339124E2,6.3990814E1,5.840692E2,2.569365E2,4.289225E1,2.1288791E2,4.961105E1,1.7418341E2,1.5121582E2,-3.8330814E1,-3.3082687E1,-5.287537E1,1.578692E2,-3.0396564E1,1.1969514E2,4.4367776E2,2.4032084E1,1.680692E2,4.9903216E0,-3.0028772E1,-4.3155327E0,3.2585197E1,-4.0894844E1,4.1358917E1,-5.203055E1,-6.584348E1,2.7143593E1,-2.4093288E1,1.3666919E2,4.2570133E1,8.7390816E1,-1.9822618E1,-3.4849205E1,-4.990807E1,-6.113804E1,-4.1813034E1],"categories":[],"categories_nodes":[],"categories_segments":[],"categories_sizes":[],"default_left":[0,0,0,0,0,0,0,0,0,0,0,0,0,0,0,0,0,0,0,0,0,0,0,0,0,0,0,0,0,0,0,0,0,0,0,0,0,0,0,0,0,0,0,0,0,0,0,0,0,0,0,0,0,0,0,0,0,0,0,0,0,0,0,0,0,0,0,0,0,0,0,0,0,0,0,0,0,0,0,0,0,0,0,0,0,0,0,0,0,0,0,0,0,0,0],"id":0,"left_children":[1,3,5,7,9,11,13,15,17,-1,19,21,23,-1,25,27,29,31,33,35,37,39,41,43,45,47,49,51,53,55,57,59,61,63,65,-1,67,69,71,73,75,77,79,81,83,85,87,-1,89,91,93,-1,-1,-1,-1,-1,-1,-1,-1,-1,-1,-1,-1,-1,-1,-1,-1,-1,-1,-1,-1,-1,-1,-1,-1,-1,-1,-1,-1,-1,-1,-1,-1,-1,-1,-1,-1,-1,-1,-1,-1,-1,-1,-1,-1],"loss_changes":[1.6927688E8,8.724488E7,1.3028456E7,2.3764976E7,5.2842644E5,2.571059E7,5.28232E5,5.4966464E7,2.466908E6,0E0,4.2741138E5,3.5890376E7,3.028776E6,0E0,1.378664E6,8.654808E6,1.3586368E7,3.054448E6,1.960876E6,1.706247E6,2.820405E5,1.0507936E7,2.8080955E6,6.15648E5,9.253729E5,3.4396912E5,1.59082E5,1.029144E6,1.201141E6,3.0396016E7,1.7802152E7,1.308078E6,7.03856E5,1.967278E6,1.179037E6,0E0,7.499251E5,5.17545E4,9.271114E5,8.33968E6,5.4064825E5,3.22626E5,1.555949E6,5.883072E5,2.01564E5,4.8421997E5,1.9125775E5,0E0,9.5071544E5,1.51542E5,3.8826E5,0E0,0E0,0E0,0E0,0E0,0E0,0E0,0E0,0E0,0E0,0E0,0E0,0E0,0E0,0E0,0E0,0E0,0E0,0E0,0E0,0E0,0E0,0E0,0E0,0E0,0E0,0E0,0E0,0E0,0E0,0E0,0E0,0E0,0E0,0E0,0E0,0E0,0E0,0E0,0E0,0E0,0E0,0E0,0E0],"parents":[2147483647,0,0,1,1,2,2,3,3,4,4,5,5,6,6,7,7,8,8,10,10,11,11,12,12,14,14,15,15,16,16,17,17,18,18,19,19,20,20,21,21,22,22,23,23,24,24,25,25,26,26,27,27,28,28,29,29,30,30,31,31,32,32,33,33,34,34,36,36,37,37,38,38,39,39,40,40,41,41,42,42,43,43,44,44,45,45,46,46,48,48,49,49,50,50],"right_children":[2,4,6,8,10,12,14,16,18,-1,20,22,24,-1,26,28,30,32,34,36,38,40,42,44,46,48,50,52,54,56,58,60,62,64,66,-1,68,70,72,74,76,78,80,82,84,86,88,-1,90,92,94,-1,-1,-1,-1,-1,-1,-1,-1,-1,-1,-1,-1,-1,-1,-1,-1,-1,-1,-1,-1,-1,-1,-1,-1,-1,-1,-1,-1,-1,-1,-1,-1,-1,-1,-1,-1,-1,-1,-1,-1,-1,-1,-1,-1],"split_conditions":[-1.2096678E0,-3.697535E-1,6.02161E-2,-2.9946748E-2,4.006245E-1,7.693627E-2,-5.6538117E-1,4.0899235E-1,6.353563E-1,8.730284E1,-9.434564E-1,-7.1410334E-1,2.2456474E0,-6.718954E1,-5.3810406E-1,-1.2853789E0,-6.56959E-1,5.258172E-1,-1.2784961E0,-9.920037E-1,9.7962904E-1,4.869794E-1,-9.912349E-1,8.106296E-1,1.0492189E0,-1.2889997E0,-1.690668E-1,-7.9177804E-2,-4.400037E-1,5.7600796E-1,8.543673E-1,8.4602374E-1,6.052707E-1,3.2548454E-1,1.0492189E0,-4.5135323E1,1.30633E-1,7.660329E-3,3.2068783E-1,1.9289257E-2,-2.1467513E-1,5.6209E-1,-3.2865995E-1,7.012697E-1,1.242214E0,-8.5171056E-1,-8.875049E-2,-5.3791847E1,-8.8537866E-1,-8.0533594E-1,1.0523168E0,3.4150082E2,1.4733649E2,9.017337E1,1.8751726E2,6.135314E2,1.7582692E3,3.0011197E2,8.2522565E2,2.1339124E2,6.3990814E1,5.840692E2,2.569365E2,4.289225E1,2.1288791E2,4.961105E1,1.7418341E2,1.5121582E2,-3.8330814E1,-3.3082687E1,-5.287537E1,1.578692E2,-3.0396564E1,1.1969514E2,4.4367776E2,2.4032084E1,1.680692E2,4.9903216E0,-3.0028772E1,-4.3155327E0,3.2585197E1,-4.0894844E1,4.1358917E1,-5.203055E1,-6.584348E1,2.7143593E1,-2.4093288E1,1.3666919E2,4.2570133E1,8.7390816E1,-1.9822618E1,-3.4849205E1,-4.990807E1,-6.113804E1,-4.1813034E1],"split_indices":[3,4,3,1,4,4,5,2,1,0,1,3,4,0,5,3,1,1,3,1,2,1,4,4,2,2,4,1,2,2,2,0,1,2,2,0,2,1,1,2,5,2,2,2,4,0,1,0,2,1,4,0,0,0,0,0,0,0,0,0,0,0,0,0,0,0,0,0,0,0,0,0,0,0,0,0,0,0,0,0,0,0,0,0,0,0,0,0,0,0,0,0,0,0,0],"split_type":[0,0,0,0,0,0,0,0,0,0,0,0,0,0,0,0,0,0,0,0,0,0,0,0,0,0,0,0,0,0,0,0,0,0,0,0,0,0,0,0,0,0,0,0,0,0,0,0,0,0,0,0,0,0,0,0,0,0,0,0,0,0,0,0,0,0,0,0,0,0,0,0,0,0,0,0,0,0,0,0,0,0,0,0,0,0,0,0,0,0,0,0,0,0,0],"sum_hessian":[3.148E3,4.3E2,2.718E3,2.91E2,1.39E2,1.458E3,1.26E3,1.42E2,1.49E2,3E0,1.36E2,7.34E2,7.24E2,1.48E2,1.112E3,9.2E1,5E1,6.9E1,8E1,2.6E1,1.1E2,5.2E1,6.82E2,5.92E2,1.32E2,1.37E2,9.75E2,3.9E1,5.3E1,1.9E1,3.1E1,6.2E1,7E0,4.5E1,3.5E1,1.7E1,9E0,9.8E1,1.2E1,3.7E1,1.5E1,1.51E2,5.31E2,7.7E1,5.15E2,1.19E2,1.3E1,2.1E1,1.16E2,4.8E2,4.95E2,3.4E1,5E0,3.2E1,2.1E1,1.7E1,2E0,2.3E1,8E0,5.5E1,7E0,2E0,5E0,8E0,3.7E1,2.6E1,9E0,7E0,2E0,8E1,1.8E1,2E0,1E1,1.1E1,2.6E1,1.3E1,2E0,2.9E1,1.22E2,1.39E2,3.92E2,6.9E1,8E0,1.71E2,3.44E2,1.9E1,1E2,2E0,1.1E1,7E0,1.09E2,8.4E1,3.96E2,3.53E2,1.42E2],"tree_param":{"num_deleted":"0","num_feature":"6","num_nodes":"95","size_leaf_vector":"1"}},{"base_weights":[2.108814E0,4.2163113E2,-6.439219E1,6.4268665E2,-5.236855E1,-1.8964325E1,-1.1690199E2,8.5063116E2,4.1716037E2,4.0487423E1,-7.227233E1,7.3775986E1,-1.1295765E2,-4.7167957E1,-1.1139861E2,1.2037201E3,5.345343E2,8.3237506E2,2.9480298E2,-1.0782325E2,3.6912552E2,-8.521004E1,3.479834E1,9.0317096E2,3.842807E1,-1.345935E2,-1.5641701E1,-4.57609E1,-1.2079586E2,7.768708E2,1.6453834E3,5.843366E2,1.5996182E2,4.1899496E2,1.4066154E3,1.232145E2,4.1252805E2,-3.632827E1,-1.8329685E1,1.6298253E2,-3.0664654E1,-8.87967E1,4.1556465E1,1.2629536E2,-7.3688644E1,1.1525817E3,2.8909158E2,-2.2062483E1,9.532321E1,-1.0250688E2,-1.5140834E2,-3.673528E1,1.6627765E2,-9.735256E1,-5.205352E0,-1.2583819E2,-9.55248E1,2.6101196E2,1.2869804E2,1.3219629E3,4.0053195E2,1.867289E2,7.455788E1,7.656451E1,1.1414502E1,2.4328278E1,1.5002737E2,2.1470592E1,1.2243289E2,3.500246E1,1.6158704E2,-3.525579E1,-2.2501556E1,9.548499E0,-3.0202003E1,1.1060767E2,4.8198425E2,1.2987061E-1,1.732991E2,-9.201991E0,4.675146E1,3.578748E2,2.2078691E1,1.7189308E1,-3.3272892E1,-4.580944E1,1.9375298E1,3.7520622E1,-1.4822819E1,8.5584045E1,2.054021E1,-9.63406E0,-4.9761124E1,2.918871E1,-2.8699987E1,-4.0636333E1,-3.2372864E1,-3.0727087E1,6.2844986E1],"categories":[],"categories_nodes":[],"categories_segments":[],"categories_sizes":[],"default_left":[0,0,0,0,0,0,0,0,0,0,0,0,0,0,0,0,0,0,0,0,0,0,0,0,0,0,0,0,0,0,0,0,0,0,0,0,0,0,0,0,0,0,0,0,0,0,0,0,0,0,0,0,0,0,0,0,0,0,0,0,0,0,0,0,0,0,0,0,0,0,0,0,0,0,0,0,0,0,0,0,0,0,0,0,0,0,0,0,0,0,0,0,0,0,0,0,0,0,0],"id":1,"left_children":[1,3,5,7,9,11,13,15,17,19,21,23,25,-1,27,29,31,33,35,37,39,41,43,45,47,49,51,53,55,57,59,61,63,65,-1,67,69,-1,-1,-1,-1,71,-1,-1,73,75,77,79,81,83,85,87,89,91,93,95,97,-1,-1,-1,-1,-1,-1,-1,-1,-1,-1,-1,-1,-1,-1,-1,-1,-1,-1,-1,-1,-1,-1,-1,-1,-1,-1,-1,-1,-1,-1,-1,-1,-1,-1,-1,-1,-1,-1,-1,-1,-1,-1],"loss_changes":[8.788002E7,4.5193944E7,6.483708E6,1.3432856E7,2.5797562E5,1.2726392E7,2.62326E5,1.6321328E7,7.01967E6,1.2583138E6,1.6088356E5,2.1513568E7,1.524393E6,0E0,6.80985E5,1.2106936E7,1.436202E6,4.9047784E7,2.2116E6,3.7626562E3,7.122019E5,9.415019E4,5.75672E5,4.261538E6,2.4318855E6,3.04421E5,5.164731E5,2.9451144E5,1.11964E5,8.5839E5,2.3245416E7,7.66338E5,1.1802866E5,7.8152E5,0E0,6.623339E5,2.399333E6,0E0,0E0,0E0,0E0,3.1194312E4,0E0,0E0,3.4525043E4,6.881788E6,8.3273825E5,5.302117E5,8.592889E6,2.8431425E5,1.17675E5,2.5226631E5,1.4342303E5,2.718157E5,7.5109794E5,1.24687E5,3.707525E5,0E0,0E0,0E0,0E0,0E0,0E0,0E0,0E0,0E0,0E0,0E0,0E0,0E0,0E0,0E0,0E0,0E0,0E0,0E0,0E0,0E0,0E0,0E0,0E0,0E0,0E0,0E0,0E0,0E0,0E0,0E0,0E0,0E0,0E0,0E0,0E0,0E0,0E0,0E0,0E0,0E0,0E0],"parents":[2147483647,0,0,1,1,2,2,3,3,4,4,5,5,6,6,7,7,8,8,9,9,10,10,11,11,12,12,14,14,15,15,16,16,17,17,18,18,19,19,20,20,21,21,22,22,23,23,24,24,25,25,26,26,27,27,28,28,29,29,30,30,31,31,32,32,33,33,35,35,36,36,41,41,44,44,45,45,46,46,47,47,48,48,49,49,50,50,51,51,52,52,53,53,54,54,55,55,56,56],"right_children":[2,4,6,8,10,12,14,16,18,20,22,24,26,-1,28,30,32,34,36,38,40,42,44,46,48,50,52,54,56,58,60,62,64,66,-1,68,70,-1,-1,-1,-1,72,-1,-1,74,76,78,80,82,84,86,88,90,92,94,96,98,-1,-1,-1,-1,-1,-1,-1,-1,-1,-1,-1,-1,-1,-1,-1,-1,-1,-1,-1,-1,-1,-1,-1,-1,-1,-1,-1,-1,-1,-1,-1,-1,-1,-1,-1,-1,-1,-1,-1,-1,-1,-1],"split_conditions":[-1.2096678E0,-1.3885589E-1,6.02161E-2,-5.790719E-1,-9.489265E-1,7.693627E-2,-5.6538117E-1,-2.9946748E-2,-7.561049E-1,-9.920037E-1,9.7962904E-1,-8.8273287E-1,2.2456474E0,-4.7167957E1,-5.329084E-1,3.950744E-1,2.3851101E0,5.6209E-1,-4.496156E-1,2.4197674E-1,1.30633E-1,-1.2957033E0,3.2068783E-1,-6.5459913E-1,-5.445452E-1,8.5594594E-1,1.0492189E0,-6.421855E-2,5.0362283E-1,-1.05972454E-1,4.368283E-1,8.2368517E-1,2.6900692E0,-9.82431E-1,1.4066154E3,1.0492189E0,3.5332048E-1,-3.632827E1,-1.8329685E1,1.6298253E2,-3.0664654E1,-4.719542E-1,4.1556465E1,1.2629536E2,1.0492189E0,-8.0133784E-1,-3.2248476E-1,2.8794723E0,-5.078605E-1,-8.311116E-1,1.2823746E-1,-1.2984828E0,1.3554142E0,-8.436248E-1,7.660329E-3,2.0022283E-1,9.800554E-1,2.6101196E2,1.2869804E2,1.3219629E3,4.0053195E2,1.867289E2,7.455788E1,7.656451E1,1.1414502E1,2.4328278E1,1.5002737E2,2.1470592E1,1.2243289E2,3.500246E1,1.6158704E2,-3.525579E1,-2.2501556E1,9.548499E0,-3.0202003E1,1.1060767E2,4.8198425E2,1.2987061E-1,1.732991E2,-9.201991E0,4.675146E1,3.578748E2,2.2078691E1,1.7189308E1,-3.3272892E1,-4.580944E1,1.9375298E1,3.7520622E1,-1.4822819E1,8.5584045E1,2.054021E1,-9.63406E0,-4.9761124E1,2.918871E1,-2.8699987E1,-4.0636333E1,-3.2372864E1,-3.0727087E1,6.2844986E1],"split_indices":[3,4,3,4,1,4,5,1,1,1,2,3,4,0,5,2,1,2,0,2,2,3,1,4,4,4,2,2,5,2,2,0,1,1,0,2,2,0,0,0,0,0,0,0,2,4,5,1,4,3,5,0,2,2,1,2,0,0,0,0,0,0,0,0,0,0,0,0,0,0,0,0,0,0,0,0,0,0,0,0,0,0,0,0,0,0,0,0,0,0,0,0,0,0,0,0,0,0,0],"split_type":[0,0,0,0,0,0,0,0,0,0,0,0,0,0,0,0,0,0,0,0,0,0,0,0,0,0,0,0,0,0,0,0,0,0,0,0,0,0,0,0,0,0,0,0,0,0,0,0,0,0,0,0,0,0,0,0,0,0,0,0,0,0,0,0,0,0,0,0,0,0,0,0,0,0,0,0,0,0,0,0,0,0,0,0,0,0,0,0,0,0,0,0,0,0,0,0,0,0,0],"sum_hessian":[3.148E3,4.3E2,2.718E3,2.93E2,1.37E2,1.458E3,1.26E3,1.51E2,1.42E2,2.4E1,1.13E2,7.34E2,7.24E2,1.48E2,1.112E3,7E1,8.1E1,3.1E1,1.11E2,1.7E1,7E0,1.01E2,1.2E1,2.9E1,7.05E2,5.92E2,1.32E2,1.4E2,9.72E2,3.7E1,3.3E1,7.1E1,1E1,2.9E1,2E0,4.6E1,6.5E1,1.2E1,5E0,5E0,2E0,1E2,1E0,2E0,1E1,2E1,9E0,3.42E2,3.63E2,2.06E2,3.86E2,1.19E2,1.3E1,6.1E1,7.9E1,8.07E2,1.65E2,2.8E1,9E0,2E0,3.1E1,6.3E1,8E0,5E0,5E0,6E0,2.3E1,4E1,6E0,2E1,4.5E1,3E1,7E1,2E0,8E0,8E0,1.2E1,5E0,4E0,3.27E2,1.5E1,6E0,3.57E2,1E1,1.96E2,3.84E2,2E0,8E0,1.11E2,5E0,8E0,3.2E1,2.9E1,3.7E1,4.2E1,5.21E2,2.86E2,1.62E2,3E0],"tree_param":{"num_deleted":"0","num_feature":"6","num_nodes":"99","size_leaf_vector":"1"}},{"base_weights":[3.2776618E0,3.0654126E2,-4.4536877E1,4.6632556E2,-3.7424725E1,7.6816267E-1,-7.153435E1,7.30137E2,3.4951804E2,3.1447596E1,-5.2330772E1,6.2907387E1,-7.1972145E1,-8.4665535E1,-1.7381191E0,4.0277405E2,1.393551E3,4.6561887E2,1.8669597E2,-7.8512825E1,2.7492758E2,-6.2729546E1,3.248513E1,5.422986E2,2.8208786E1,-9.6224075E1,-9.980608E0,-7.461641E1,-9.641865E1,7.444845E1,-7.2509056E1,2.7917746E2,3.2576038E2,9.2636314E1,1.6607151E3,3.6314148E2,8.775618E2,-2.5020851E1,2.4228908E2,-2.5895824E1,-1.22855425E1,4.0745633E2,-2.4531721E1,-4.244248E1,-8.030193E1,1.01036285E2,-5.3459644E1,8.350257E2,1.4879462E2,1.0381752E1,4.6712607E2,-7.6053925E1,-1.16789E2,-4.686653E1,5.4208866E1,-8.78578E1,-4.8353386E1,-1.0577646E2,-6.4298225E1,2.0220084E2,-5.4431946E1,-1.2050694E2,-4.2231842E1,9.351098E1,-2.8623213E1,-2.5843966E1,9.0040405E1,4.0736484E2,8.506219E2,1.2110363E2,4.4589626E1,5.447799E2,1.3186574E2,5.839305E1,-2.3511942E1,2.8131845E2,6.2260128E1,1.5018321E2,4.4229515E1,-2.1165903E1,5.1232548E1,-2.8663E1,-6.0795684E0,7.6388006E0,-2.2148136E1,8.111229E1,3.4851166E2,7.7166176E0,1.317073E2,8.403313E-2,9.988265E1,4.39661E2,3.7778217E1,3.325326E1,-2.434003E1,-1.608027E1,-3.540779E1,-4.0282955E0,-3.5460266E1,5.0148746E1,-5.030831E0,-2.3718346E1,-3.3010036E1,-2.2527815E1,-5.8695273E0,-3.1868021E1,1.8377052E1,1.0442895E2,-2.2502876E1,7.689148E-1,1.4714148E2,-2.0939346E1,1.4165253E2,-4.0385395E1,-1.9590691E0,2.6502932E1,-2.0438711E1],"categories":[],"categories_nodes":[],"categories_segments":[],"categories_sizes":[],"default_left":[0,0,0,0,0,0,0,0,0,0,0,0,0,0,0,0,0,0,0,0,0,0,0,0,0,0,0,0,0,0,0,0,0,0,0,0,0,0,0,0,0,0,0,0,0,0,0,0,0,0,0,0,0,0,0,0,0,0,0,0,0,0,0,0,0,0,0,0,0,0,0,0,0,0,0,0,0,0,0,0,0,0,0,0,0,0,0,0,0,0,0,0,0,0,0,0,0,0,0,0,0,0,0,0,0,0,0,0,0,0,0,0,0,0,0,0,0],"id":2,"left_children":[1,3,5,7,9,11,13,15,17,19,21,23,25,27,29,31,33,35,37,39,41,43,45,47,49,51,53,55,57,59,61,63,-1,65,67,69,71,73,75,-1,-1,77,-1,79,81,-1,83,85,87,89,91,93,95,97,99,101,103,105,107,109,111,113,115,-1,-1,-1,-1,-1,-1,-1,-1,-1,-1,-1,-1,-1,-1,-1,-1,-1,-1,-1,-1,-1,-1,-1,-1,-1,-1,-1,-1,-1,-1,-1,-1,-1,-1,-1,-1,-1,-1,-1,-1,-1,-1,-1,-1,-1,-1,-1,-1,-1,-1,-1,-1,-1,-1],"loss_changes":[4.5675444E7,2.3595452E7,3.3281685E6,8.773652E6,1.4229181E5,4.6013945E6,1.562498E6,1.876748E7,3.788344E6,6.909144E5,1.01701625E5,9.11688E6,7.04141E5,1.62292E5,1.4665745E6,4.846961E6,9.925332E6,4.704884E6,1.03005175E6,1.7430859E3,4.115027E5,3.2597531E4,3.5799625E5,4.137756E6,4.0091665E6,1.309045E5,3.174431E5,2.66308E5,1.90978E5,2.167892E6,1.9981794E5,6.7548E5,0E0,2.4843845E5,4.687476E6,7.83475E5,8.655154E6,2.3792714E5,1.4731338E6,0E0,0E0,7.152869E4,0E0,3.0573803E5,4.6561062E4,0E0,1.9561766E4,3.559569E6,5.9593575E5,1.6095512E6,6.6285765E6,1.7323088E5,6.57025E3,2.0116683E5,3.9564875E5,9.19575E4,2.0098288E5,4.47145E4,6.931237E5,3.797026E6,5.6701425E5,8.597069E4,3.0359294E5,0E0,0E0,0E0,0E0,0E0,0E0,0E0,0E0,0E0,0E0,0E0,0E0,0E0,0E0,0E0,0E0,0E0,0E0,0E0,0E0,0E0,0E0,0E0,0E0,0E0,0E0,0E0,0E0,0E0,0E0,0E0,0E0,0E0,0E0,0E0,0E0,0E0,0E0,0E0,0E0,0E0,0E0,0E0,0E0,0E0,0E0,0E0,0E0,0E0,0E0,0E0,0E0,0E0,0E0],"parents":[2147483647,0,0,1,1,2,2,3,3,4,4,5,5,6,6,7,7,8,8,9,9,10,10,11,11,12,12,13,13,14,14,15,15,16,16,17,17,18,18,19,19,20,20,21,21,22,22,23,23,24,24,25,25,26,26,27,27,28,28,29,29,30,30,31,31,33,33,34,34,35,35,36,36,37,37,38,38,41,41,43,43,44,44,46,46,47,47,48,48,49,49,50,50,51,51,52,52,53,53,54,54,55,55,56,56,57,57,58,58,59,59,60,60,61,61,62,62],"right_children":[2,4,6,8,10,12,14,16,18,20,22,24,26,28,30,32,34,36,38,40,42,44,46,48,50,52,54,56,58,60,62,64,-1,66,68,70,72,74,76,-1,-1,78,-1,80,82,-1,84,86,88,90,92,94,96,98,100,102,104,106,108,110,112,114,116,-1,-1,-1,-1,-1,-1,-1,-1,-1,-1,-1,-1,-1,-1,-1,-1,-1,-1,-1,-1,-1,-1,-1,-1,-1,-1,-1,-1,-1,-1,-1,-1,-1,-1,-1,-1,-1,-1,-1,-1,-1,-1,-1,-1,-1,-1,-1,-1,-1,-1,-1,-1,-1,-1],"split_conditions":[-1.2647305E0,-1.3885589E-1,-3.5275427E-1,-3.9439332E-1,-9.489265E-1,4.3515125E-1,2.097387E0,4.0899235E-1,-1.2853789E0,-9.920037E-1,9.7962904E-1,-8.8273287E-1,2.2456474E0,2.3446454E-1,-2.7268323E-1,-4.679664E-1,-3.6026117E-1,9.100392E-1,-1.0994721E-1,-9.9610627E-1,1.30633E-1,6.4497626E-1,3.2068783E-1,-6.5459913E-1,4.6075875E-1,1.4903749E0,-4.3747053E-1,-3.093317E-1,1.0788764E0,6.02161E-2,3.2548454E-1,-5.4960793E-1,3.2576038E2,-6.661214E-1,5.8992594E-1,1.6220288E0,-2.9946748E-2,-9.2713255E-1,-5.6613576E-2,-2.5895824E1,-1.22855425E1,-9.523454E-1,-2.4531721E1,1.4905915E-1,1.1140871E0,1.01036285E2,1.0492189E0,-8.0133784E-1,-2.8221852E-1,-3.3117738E-2,-5.974715E-1,-1.0203897E0,-9.6340364E-1,-7.9507947E-1,-8.875049E-2,1.2268574E0,-6.421855E-2,8.101659E-1,-9.9884135E-1,-1.3380839E-1,8.90701E-1,7.7074176E-1,5.203361E-1,9.351098E1,-2.8623213E1,-2.5843966E1,9.0040405E1,4.0736484E2,8.506219E2,1.2110363E2,4.4589626E1,5.447799E2,1.3186574E2,5.839305E1,-2.3511942E1,2.8131845E2,6.2260128E1,1.5018321E2,4.4229515E1,-2.1165903E1,5.1232548E1,-2.8663E1,-6.0795684E0,7.6388006E0,-2.2148136E1,8.111229E1,3.4851166E2,7.7166176E0,1.317073E2,8.403313E-2,9.988265E1,4.39661E2,3.7778217E1,3.325326E1,-2.434003E1,-1.608027E1,-3.540779E1,-4.0282955E0,-3.5460266E1,5.0148746E1,-5.030831E0,-2.3718346E1,-3.3010036E1,-2.2527815E1,-5.8695273E0,-3.1868021E1,1.8377052E1,1.0442895E2,-2.2502876E1,7.689148E-1,1.4714148E2,-2.0939346E1,1.4165253E2,-4.0385395E1,-1.9590691E0,2.6502932E1,-2.0438711E1],"split_indices":[3,4,3,1,1,4,5,2,3,1,2,3,4,4,1,1,0,2,1,1,2,0,1,4,5,4,1,4,3,3,2,1,0,1,2,1,1,2,1,0,0,1,0,0,0,0,2,4,5,4,1,3,0,1,1,3,2,5,1,2,0,1,2,0,0,0,0,0,0,0,0,0,0,0,0,0,0,0,0,0,0,0,0,0,0,0,0,0,0,0,0,0,0,0,0,0,0,0,0,0,0,0,0,0,0,0,0,0,0,0,0,0,0,0,0,0,0],"split_type":[0,0,0,0,0,0,0,0,0,0,0,0,0,0,0,0,0,0,0,0,0,0,0,0,0,0,0,0,0,0,0,0,0,0,0,0,0,0,0,0,0,0,0,0,0,0,0,0,0,0,0,0,0,0,0,0,0,0,0,0,0,0,0,0,0,0,0,0,0,0,0,0,0,0,0,0,0,0,0,0,0,0,0,0,0,0,0,0,0,0,0,0,0,0,0,0,0,0,0,0,0,0,0,0,0,0,0,0,0,0,0,0,0,0,0,0,0],"sum_hessian":[3.148E3,4.28E2,2.72E3,2.92E2,1.36E2,1.016E3,1.704E3,8.8E1,2.04E2,2.4E1,1.12E2,5.48E2,4.68E2,1.434E3,2.7E2,6E1,2.8E1,1.18E2,8.6E1,1.7E1,7E0,1E2,1.2E1,3.6E1,5.12E2,3.36E2,1.32E2,7.77E2,6.57E2,1.3E2,1.4E2,5.2E1,8E0,5E0,2.3E1,9.6E1,2.2E1,1.8E1,6.8E1,1.3E1,4E0,5E0,2E0,4.8E1,5.2E1,2E0,1E1,2E1,1.6E1,4.93E2,1.9E1,1.72E2,1.64E2,8.4E1,4.8E1,5.15E2,2.62E2,5.07E2,1.5E2,6.5E1,6.5E1,5.3E1,8.7E1,4.8E1,4E0,3E0,2E0,2E1,3E0,8E1,1.6E1,6E0,1.6E1,3E0,1.5E1,2E0,6.6E1,3E0,2E0,4.3E1,5E0,4.1E1,1.1E1,2E0,8E0,8E0,1.2E1,1.2E1,4E0,4.79E2,1.4E1,4E0,1.5E1,4E0,1.68E2,4E0,1.6E2,5.8E1,2.6E1,1.8E1,3E1,3.72E2,1.43E2,1.35E2,1.27E2,5.06E2,1E0,3E0,1.47E2,3.9E1,2.6E1,6.4E1,1E0,4.7E1,6E0,1.4E1,7.3E1],"tree_param":{"num_deleted":"0","num_feature":"6","num_nodes":"117","size_leaf_vector":"1"}},{"base_weights":[3.7146034E0,2.214293E2,-3.0797626E1,3.3702277E2,-2.1247274E1,-5.8855276E0,-5.6657722E1,1.5960652E2,4.3877374E2,2.7281303E1,-3.1522854E1,4.7787195E2,-1.6575903E1,-6.2111347E1,-6.9441013E0,2.904708E2,2.336318E1,7.553097E2,3.5180997E2,-5.7080162E1,2.1368443E2,-5.295542E1,-1.1363778E0,6.3447473E2,1.0121896E2,2.2930426E1,-6.100231E1,-7.015906E1,-3.6209557E1,-3.6876076E1,1.2277559E1,3.802803E2,2.5626705E1,1.2965674E2,-1.0512361E2,6.243247E2,6.357064E2,4.6922433E2,1.4687643E2,-1.9725143E1,-2.878112E1,3.1762155E2,-1.9625376E1,-2.6152384E1,-8.8099075E1,9.2144554E1,-6.3285786E1,1.3855759E2,9.948661E2,1.8068764E2,-1.4387243E1,1.6552757E1,7.7805133E2,-4.9359356E1,-7.343261E1,-5.114167E0,-7.116295E1,-9.4781044E1,-1.3115354E1,1.1940032E2,-1.2924338E1,1.4942549E2,4.952407E1,-4.0975388E1,4.46831E1,1.7051706E1,5.9605553E1,-4.472773E1,4.8895737E1,6.790492E1,2.1289218E2,1.2852878E2,4.650801E2,-2.1504763E1,5.5680943E1,-1.1458646E1,-4.35752E0,1.1639198E2,3.538362E1,-9.798965E0,3.4165504E1,9.044351E0,-2.9392408E1,-1.9958472E0,7.235167E1,-2.6712059E1,-8.24765E0,-1.1652679E2,7.20807E1,1.1242624E2,3.4797925E2,7.394536E1,9.818775E0,-1.6443275E1,2.2096115E1,3.7227272E1,-1.2258924E0,3.7442987E2,-3.2409004E1,1.0722791E1,-1.63868E1,-2.9970697E1,-2.0996767E1,-2.1715563E1,1.8838844E1,-2.50002E1,-2.0047237E1,-2.9239979E1,2.2596376E0,8.608335E1,-8.461096E0,5.046225E1,9.063408E0,2.7367442E0,-2.1280836E1],"categories":[],"categories_nodes":[],"categories_segments":[],"categories_sizes":[],"default_left":[0,0,0,0,0,0,0,0,0,0,0,0,0,0,0,0,0,0,0,0,0,0,0,0,0,0,0,0,0,0,0,0,0,0,0,0,0,0,0,0,0,0,0,0,0,0,0,0,0,0,0,0,0,0,0,0,0,0,0,0,0,0,0,0,0,0,0,0,0,0,0,0,0,0,0,0,0,0,0,0,0,0,0,0,0,0,0,0,0,0,0,0,0,0,0,0,0,0,0,0,0,0,0,0,0,0,0,0,0,0,0,0,0,0,0],"id":3,"left_children":[1,3,5,7,9,11,13,15,17,19,21,23,25,27,29,31,33,35,37,39,41,43,45,47,49,51,53,55,57,-1,59,61,63,65,67,69,-1,71,73,-1,75,77,-1,79,81,83,85,87,89,91,93,95,97,99,101,103,105,107,109,111,113,-1,-1,-1,-1,-1,-1,-1,-1,-1,-1,-1,-1,-1,-1,-1,-1,-1,-1,-1,-1,-1,-1,-1,-1,-1,-1,-1,-1,-1,-1,-1,-1,-1,-1,-1,-1,-1,-1,-1,-1,-1,-1,-1,-1,-1,-1,-1,-1,-1,-1,-1,-1,-1,-1],"loss_changes":[2.3667838E7,1.2097498E7,1.751326E6,5.201234E6,7.067228E4,7.175688E6,3.612425E5,1.9187875E6,4.8268E6,4.0532816E5,7.5486016E4,1.7053265E6,2.3831025E6,2.480165E5,2.9799997E5,1.2984585E6,7.511251E5,5.643446E6,3.468216E6,2.5241367E3,2.5285088E5,6.1749047E4,2.899018E5,3.615363E6,9.447032E4,3.449761E6,8.8855E4,5.94495E4,3.8697088E5,0E0,3.120083E5,9.5719E5,3.2039453E5,1.3950178E5,3.190113E5,1.095656E6,0E0,3.437234E6,4.7882812E5,0E0,2.5047803E2,3.8525688E4,0E0,4.0190246E4,3.6818797E4,2.9607534E5,2.5207383E4,6.29325E5,7.93615E5,5.0343953E4,2.1831719E4,1.5852206E6,2.633838E6,1.5110919E5,2.09895E4,7.307147E4,4.2064E4,2.299025E4,9.452632E5,9.068559E4,1.2087078E5,0E0,0E0,0E0,0E0,0E0,0E0,0E0,0E0,0E0,0E0,0E0,0E0,0E0,0E0,0E0,0E0,0E0,0E0,0E0,0E0,0E0,0E0,0E0,0E0,0E0,0E0,0E0,0E0,0E0,0E0,0E0,0E0,0E0,0E0,0E0,0E0,0E0,0E0,0E0,0E0,0E0,0E0,0E0,0E0,0E0,0E0,0E0,0E0,0E0,0E0,0E0,0E0,0E0,0E0],"parents":[2147483647,0,0,1,1,2,2,3,3,4,4,5,5,6,6,7,7,8,8,9,9,10,10,11,11,12,12,13,13,14,14,15,15,16,16,17,17,18,18,19,19,20,20,21,21,22,22,23,23,24,24,25,25,26,26,27,27,28,28,30,30,31,31,32,32,33,33,34,34,35,35,37,37,38,38,40,40,41,41,43,43,44,44,45,45,46,46,47,47,48,48,49,49,50,50,51,51,52,52,53,53,54,54,55,55,56,56,57,57,58,58,59,59,60,60],"right_children":[2,4,6,8,10,12,14,16,18,20,22,24,26,28,30,32,34,36,38,40,42,44,46,48,50,52,54,56,58,-1,60,62,64,66,68,70,-1,72,74,-1,76,78,-1,80,82,84,86,88,90,92,94,96,98,100,102,104,106,108,110,112,114,-1,-1,-1,-1,-1,-1,-1,-1,-1,-1,-1,-1,-1,-1,-1,-1,-1,-1,-1,-1,-1,-1,-1,-1,-1,-1,-1,-1,-1,-1,-1,-1,-1,-1,-1,-1,-1,-1,-1,-1,-1,-1,-1,-1,-1,-1,-1,-1,-1,-1,-1,-1,-1,-1],"split_conditions":[-1.2096678E0,-3.697535E-1,-7.489128E-4,-4.496156E-1,-9.489265E-1,-8.8273287E-1,2.2456474E0,-1.2853789E0,-1.1453646E-1,-9.920037E-1,-4.1531655E-1,3.2670495E-1,2.4605276E-1,1.0788764E0,-6.7660916E-1,-6.2832445E-1,-8.29372E-1,-2.1282634E-1,2.8595257E-1,2.4197674E-1,1.30633E-1,-8.546679E-3,3.2068783E-1,-5.0459683E-2,-7.754428E-1,-3.3117738E-2,8.9303964E-1,-2.7364683E0,-1.0941482E0,-3.6876076E1,-8.5171056E-1,4.0424383E-1,1.5846893E-1,-2.0339823E-1,1.3642495E0,3.3940253E-1,6.357064E2,2.3193513E-1,1.5846893E-1,-1.9725143E1,-9.9884135E-1,-9.523454E-1,-1.9625376E1,-1.2957033E0,-9.263623E-1,6.3167983E-1,1.083359E0,-1.8735543E0,1.9289257E-2,7.1193796E-1,9.239051E-1,-5.940526E-1,6.226377E-1,-1.4838513E0,-1.9153082E0,-2.819976E0,-4.419846E-1,-1.7285357E-1,-8.8537866E-1,-8.875049E-2,9.800554E-1,1.4942549E2,4.952407E1,-4.0975388E1,4.46831E1,1.7051706E1,5.9605553E1,-4.472773E1,4.8895737E1,6.790492E1,2.1289218E2,1.2852878E2,4.650801E2,-2.1504763E1,5.5680943E1,-1.1458646E1,-4.35752E0,1.1639198E2,3.538362E1,-9.798965E0,3.4165504E1,9.044351E0,-2.9392408E1,-1.9958472E0,7.235167E1,-2.6712059E1,-8.24765E0,-1.1652679E2,7.20807E1,1.1242624E2,3.4797925E2,7.394536E1,9.818775E0,-1.6443275E1,2.2096115E1,3.7227272E1,-1.2258924E0,3.7442987E2,-3.2409004E1,1.0722791E1,-1.63868E1,-2.9970697E1,-2.0996767E1,-2.1715563E1,1.8838844E1,-2.50002E1,-2.0047237E1,-2.9239979E1,2.2596376E0,8.608335E1,-8.461096E0,5.046225E1,9.063408E0,2.7367442E0,-2.1280836E1],"split_indices":[3,4,4,0,1,3,4,3,0,1,1,1,3,3,2,0,0,0,1,2,2,2,1,1,4,4,3,2,2,0,0,1,2,2,1,2,0,1,2,0,1,1,0,3,1,2,1,2,2,1,1,1,0,2,2,2,5,1,2,1,0,0,0,0,0,0,0,0,0,0,0,0,0,0,0,0,0,0,0,0,0,0,0,0,0,0,0,0,0,0,0,0,0,0,0,0,0,0,0,0,0,0,0,0,0,0,0,0,0,0,0,0,0,0,0],"split_type":[0,0,0,0,0,0,0,0,0,0,0,0,0,0,0,0,0,0,0,0,0,0,0,0,0,0,0,0,0,0,0,0,0,0,0,0,0,0,0,0,0,0,0,0,0,0,0,0,0,0,0,0,0,0,0,0,0,0,0,0,0,0,0,0,0,0,0,0,0,0,0,0,0,0,0,0,0,0,0,0,0,0,0,0,0,0,0,0,0,0,0,0,0,0,0,0,0,0,0,0,0,0,0,0,0,0,0,0,0,0,0,0,0,0,0],"sum_hessian":[3.148E3,4.3E2,2.718E3,2.91E2,1.39E2,1.385E3,1.333E3,1.07E2,1.84E2,2.4E1,1.15E2,2.9E1,1.356E3,1.201E3,1.32E2,5.4E1,5.3E1,3.8E1,1.46E2,1.7E1,7E0,6.7E1,4.8E1,2E1,9E0,7.18E2,6.38E2,9.15E2,2.86E2,1.8E1,1.14E2,4E1,1.4E1,2.9E1,2.4E1,3.6E1,2E0,9.2E1,5.4E1,1.2E1,5E0,5E0,2E0,3.9E1,2.8E1,1.9E1,2.9E1,9E0,1.1E1,5E0,4E0,7.13E2,5E0,3.32E2,3.06E2,1.4E1,9.01E2,8E1,2.06E2,2.1E1,9.3E1,2.5E1,1.5E1,6E0,8E0,1.5E1,1.4E1,2.1E1,3E0,7E0,2.9E1,9E1,2E0,8E0,4.6E1,2E0,3E0,3E0,2E0,3.8E1,1E0,2E0,2.6E1,1.2E1,7E0,1.6E1,1.3E1,1E0,8E0,3E0,8E0,3E0,2E0,3E0,1E0,1.14E2,5.99E2,3E0,2E0,1.9E1,3.13E2,3.2E1,2.74E2,7E0,7E0,2.32E2,6.69E2,7.8E1,2E0,9E0,1.97E2,1.3E1,8E0,6.8E1,2.5E1],"tree_param":{"num_deleted":"0","num_feature":"6","num_nodes":"115","size_leaf_vector":"1"}},{"base_weights":[3.4885612E0,1.5955687E2,-2.1251759E1,3.3607562E2,6.316256E1,-4.6117787E0,-4.240584E1,4.8621292E2,1.4346172E2,1.3907729E2,-1.709207E1,2.9607904E1,-3.8557045E1,-3.8240498E1,-7.212869E1,3.175235E1,5.8314374E2,3.621426E1,1.939667E2,3.9652182E2,6.494187E1,2.2961273E1,-2.5802172E1,2.7506232E2,1.0041065E1,-4.558254E1,-4.830002E0,-4.2816303E1,2.371197E1,-7.453057E1,2.0161316E1,1.3279913E2,-3.045878E2,8.996739E2,4.6799005E2,1.5970912E2,-2.1530225E2,-1.24416985E2,2.6426898E2,1.15948006E2,9.210258E2,-3.533461E2,1.0453743E2,-4.193063E1,1.660979E2,-4.1109043E1,-1.7582562E0,1.4570978E3,1.8066223E2,5.0091095E0,2.1309663E2,-4.7167007E1,1.8466423E1,-1.8537226E1,1.13005486E2,-2.5877108E1,-4.915595E1,-2.808871E1,6.0683435E2,-8.772123E1,-6.3188198E1,-3.651721E1,7.783363E1,-2.2614845E1,-1.0675856E2,1.0487816E2,2.8260156E2,-5.8760525E1,6.734896E1,-2.681197E1,-7.271492E1,-4.5221188E1,-6.459186E0,1.7837242E2,2.0618109E1,4.8426514E1,-1.0413674E2,-4.2660957E1,-1.4112225E2,3.9043045E2,2.0492908E1,-1.6036203E1,-8.209957E0,7.4289314E1,-1.57003E1,-1.4964012E1,4.6883535E0,2.3263962E1,-1.4455995E1,6.698716E1,5.38181E2,1.0442179E2,-6.2281003E0,9.63932E0,-9.369533E0,-5.281407E0,2.9018314E2,-3.181421E0,-1.4843149E1,3.031197E1,-1.2354495E1,-2.6395506E1,-1.6257404E0,7.68689E1,2.0334696E1,-9.888827E0,1.8401137E2,-6.382328E0,-1.667491E1,1.1843468E1,-1.5415532E1,3.942992E2,-2.2648926E1,-2.769016E1,-1.3238567E1,-1.3643579E1,-2.2324823E1],"categories":[],"categories_nodes":[],"categories_segments":[],"categories_sizes":[],"default_left":[0,0,0,0,0,0,0,0,0,0,0,0,0,0,0,0,0,0,0,0,0,0,0,0,0,0,0,0,0,0,0,0,0,0,0,0,0,0,0,0,0,0,0,0,0,0,0,0,0,0,0,0,0,0,0,0,0,0,0,0,0,0,0,0,0,0,0,0,0,0,0,0,0,0,0,0,0,0,0,0,0,0,0,0,0,0,0,0,0,0,0,0,0,0,0,0,0,0,0,0,0,0,0,0,0,0,0,0,0,0,0,0,0,0,0,0,0],"id":4,"left_children":[1,3,5,7,9,11,13,15,17,19,21,23,25,27,29,31,33,35,37,39,41,43,45,47,49,51,53,55,57,59,-1,61,63,-1,65,67,69,71,73,75,-1,77,79,81,83,85,87,89,91,93,95,97,99,101,103,105,107,109,111,113,115,-1,-1,-1,-1,-1,-1,-1,-1,-1,-1,-1,-1,-1,-1,-1,-1,-1,-1,-1,-1,-1,-1,-1,-1,-1,-1,-1,-1,-1,-1,-1,-1,-1,-1,-1,-1,-1,-1,-1,-1,-1,-1,-1,-1,-1,-1,-1,-1,-1,-1,-1,-1,-1,-1,-1,-1],"loss_changes":[1.2162247E7,7.312411E6,9.569021E5,4.325864E6,1.7082795E6,1.7702526E6,1.454375E5,3.725838E6,3.6129975E5,2.722598E6,4.838746E4,3.642538E6,1.81046E5,2.9923875E5,5.3869312E4,5.842265E5,1.806947E7,7.487886E5,1.062502E6,2.3648254E7,1.908483E6,2.3917478E5,4.1515906E4,5.985476E6,7.182564E5,6.511E4,2.1691603E5,1.03968625E5,2.222093E6,1.6001375E4,0E0,4.5062812E5,2.0183219E4,0E0,3.486947E6,4.125628E5,5.6195312E3,2.1126531E4,2.4135045E6,6.8775894E5,0E0,1.802735E5,4.420632E6,1.5580488E3,1.5543533E5,3.5116617E4,1.6942645E5,1.261808E6,1.7943984E6,6.77255E5,2.9748662E6,5.1674375E4,8.2966555E4,1.0884588E5,7.331084E4,1.2386508E6,1.26405625E5,1.0906508E5,2.995706E6,8.702844E3,1.2721844E4,0E0,0E0,0E0,0E0,0E0,0E0,0E0,0E0,0E0,0E0,0E0,0E0,0E0,0E0,0E0,0E0,0E0,0E0,0E0,0E0,0E0,0E0,0E0,0E0,0E0,0E0,0E0,0E0,0E0,0E0,0E0,0E0,0E0,0E0,0E0,0E0,0E0,0E0,0E0,0E0,0E0,0E0,0E0,0E0,0E0,0E0,0E0,0E0,0E0,0E0,0E0,0E0,0E0,0E0,0E0,0E0],"parents":[2147483647,0,0,1,1,2,2,3,3,4,4,5,5,6,6,7,7,8,8,9,9,10,10,11,11,12,12,13,13,14,14,15,15,16,16,17,17,18,18,19,19,20,20,21,21,22,22,23,23,24,24,25,25,26,26,27,27,28,28,29,29,31,31,32,32,34,34,35,35,36,36,37,37,38,38,39,39,41,41,42,42,43,43,44,44,45,45,46,46,47,47,48,48,49,49,50,50,51,51,52,52,53,53,54,54,55,55,56,56,57,57,58,58,59,59,60,60],"right_children":[2,4,6,8,10,12,14,16,18,20,22,24,26,28,30,32,34,36,38,40,42,44,46,48,50,52,54,56,58,60,-1,62,64,-1,66,68,70,72,74,76,-1,78,80,82,84,86,88,90,92,94,96,98,100,102,104,106,108,110,112,114,116,-1,-1,-1,-1,-1,-1,-1,-1,-1,-1,-1,-1,-1,-1,-1,-1,-1,-1,-1,-1,-1,-1,-1,-1,-1,-1,-1,-1,-1,-1,-1,-1,-1,-1,-1,-1,-1,-1,-1,-1,-1,-1,-1,-1,-1,-1,-1,-1,-1,-1,-1,-1,-1,-1,-1,-1],"split_conditions":[-1.2096678E0,-5.790719E-1,2.4605276E-1,1.364816E-1,4.006245E-1,7.693627E-2,9.5535815E-1,-6.8089074E-1,6.285187E-1,-7.561049E-1,-9.489265E-1,-6.934548E-1,2.2456474E0,6.052707E-1,2.1069844E0,4.9250016E-1,-6.7678815E-1,4.3091068E-1,3.2548454E-1,5.6209E-1,-6.661214E-1,-9.920037E-1,-3.622564E-1,-6.234545E-1,-3.3117738E-2,1.6198555E0,1.0492189E0,-8.0533594E-1,5.279419E-1,9.7962904E-1,2.0161316E1,-8.297068E-1,-4.0493837E-1,8.996739E2,8.543673E-1,1.6424245E-1,4.869794E-1,9.353782E-1,1.6220288E0,-7.595237E-1,9.210258E2,-5.166314E-1,-6.56959E-1,-9.9884135E-1,1.30633E-1,1.1140871E0,3.2068783E-1,-6.7063427E-1,-8.8273287E-1,5.7600796E-1,4.368283E-1,-1.4838513E0,1.2206347E0,-6.7660916E-1,-8.875049E-2,-8.1080604E-1,-5.575877E-1,-1.0710781E0,6.285187E-1,2.076888E0,1.3693322E0,-3.651721E1,7.783363E1,-2.2614845E1,-1.0675856E2,1.0487816E2,2.8260156E2,-5.8760525E1,6.734896E1,-2.681197E1,-7.271492E1,-4.5221188E1,-6.459186E0,1.7837242E2,2.0618109E1,4.8426514E1,-1.0413674E2,-4.2660957E1,-1.4112225E2,3.9043045E2,2.0492908E1,-1.6036203E1,-8.209957E0,7.4289314E1,-1.57003E1,-1.4964012E1,4.6883535E0,2.3263962E1,-1.4455995E1,6.698716E1,5.38181E2,1.0442179E2,-6.2281003E0,9.63932E0,-9.369533E0,-5.281407E0,2.9018314E2,-3.181421E0,-1.4843149E1,3.031197E1,-1.2354495E1,-2.6395506E1,-1.6257404E0,7.68689E1,2.0334696E1,-9.888827E0,1.8401137E2,-6.382328E0,-1.667491E1,1.1843468E1,-1.5415532E1,3.942992E2,-2.2648926E1,-2.769016E1,-1.3238567E1,-1.3643579E1,-2.2324823E1],"split_indices":[3,4,3,1,4,4,1,1,1,1,1,3,4,1,2,2,1,1,2,2,1,1,1,1,4,2,2,1,4,2,0,2,0,0,2,1,1,0,1,1,0,0,1,1,2,0,1,1,3,2,2,2,4,2,1,1,5,4,1,3,2,0,0,0,0,0,0,0,0,0,0,0,0,0,0,0,0,0,0,0,0,0,0,0,0,0,0,0,0,0,0,0,0,0,0,0,0,0,0,0,0,0,0,0,0,0,0,0,0,0,0,0,0,0,0,0,0],"split_type":[0,0,0,0,0,0,0,0,0,0,0,0,0,0,0,0,0,0,0,0,0,0,0,0,0,0,0,0,0,0,0,0,0,0,0,0,0,0,0,0,0,0,0,0,0,0,0,0,0,0,0,0,0,0,0,0,0,0,0,0,0,0,0,0,0,0,0,0,0,0,0,0,0,0,0,0,0,0,0,0,0,0,0,0,0,0,0,0,0,0,0,0,0,0,0,0,0,0,0,0,0,0,0,0,0,0,0,0,0,0,0,0,0,0,0,0,0],"sum_hessian":[3.148E3,4.3E2,2.718E3,1.51E2,2.79E2,1.522E3,1.196E3,8.4E1,6.7E1,1.43E2,1.36E2,7.58E2,7.64E2,1.051E3,1.45E2,1.5E1,6.9E1,2.2E1,4.5E1,3.1E1,1.12E2,2.4E1,1.12E2,5.5E1,7.03E2,6.32E2,1.32E2,9.79E2,7.2E1,1.43E2,2E0,1.2E1,3E0,2E0,6.7E1,1.5E1,7E0,8E0,3.7E1,2.9E1,2E0,9E0,1.03E2,1.7E1,7E0,6.8E1,4.4E1,3E0,5.2E1,6.87E2,1.6E1,6.17E2,1.5E1,1.19E2,1.3E1,2.68E2,7.11E2,6.7E1,5E0,6.3E1,8E1,4E0,8E0,1E0,2E0,5.5E1,1.2E1,2E0,1.3E1,2E0,5E0,6E0,2E0,1.3E1,2.4E1,2.7E1,2E0,4E0,5E0,2E0,1.01E2,8E0,9E0,5E0,2E0,5.9E1,9E0,1.6E1,2.8E1,1E0,2E0,2.8E1,2.4E1,3.93E2,2.94E2,1.3E1,3E0,3.7E1,5.8E2,6E0,9E0,1.8E1,1.01E2,2E0,1.1E1,2.66E2,2E0,1.34E2,5.77E2,1.7E1,5E1,2E0,3E0,5.6E1,7E0,3.3E1,4.7E1],"tree_param":{"num_deleted":"0","num_feature":"6","num_nodes":"117","size_leaf_vector":"1"}},{"base_weights":[3.6807537E0,1.172137E2,-1.431718E1,2.4351259E2,4.8232826E1,-2.7729961E1,2.408011E0,5.411443E2,1.5642865E2,-4.5868506E0,1.2990494E2,-4.8603775E1,-2.6635756E1,5.3048206E1,-1.9588863E1,1.6723091E1,9.542808E2,9.7357414E1,4.274583E2,2.1908443E1,-1.8502809E2,1.0506462E3,4.7389473E1,-4.625716E1,-1.9494322E1,-1.3687081E1,1.00824776E2,-3.4587894E1,5.7574024E0,1.4777678E2,-1.7288548E2,7.197391E2,6.431732E2,-1.5366177E2,1.123442E2,9.785587E2,1.4178088E2,-1.1430209E1,9.910154E2,-1.5737187E1,-3.5288834E2,-1.0030584E2,1.3938191E3,2.2886072E2,-5.3758793E0,-1.1016522E2,-3.8025837E1,1.3859047E1,-2.9575941E1,1.0676146E2,-2.7453194E1,6.498598E2,6.49917E1,-3.8626194E1,3.1792013E1,4.1249933E2,-7.5536323E0,-2.7753077E1,9.701595E1,-1.7098434E1,-7.366644E1,7.9183685E1,3.8832986E2,6.4227815E0,-5.7887356E1,9.668393E1,2.1473095E1,6.293511E1,5.800993E2,5.7998547E1,-3.8655693E1,1.278864E1,-3.0494513E1,9.184067E1,5.595802E2,-1.3937924E1,1.7196861E1,-4.3676E1,-1.351645E2,-8.818988E0,-3.631864E1,4.95034E2,-2.1591894E1,2.1220892E1,2.3518842E2,-1.5649237E1,2.9893446E1,-1.1471104E2,-2.8586555E1,-1.9525473E1,-8.936727E0,1.1966517E2,-5.355339E-1,-1.738166E0,-1.3625766E1,5.7246227E1,-3.4899944E1,3.020923E1,-9.895923E0,4.3054483E2,1.1298353E2,1.5768636E1,2.0013469E2,-6.377111E0,-1.451526E1,-2.808946E1,1.6152334E1,4.827575E1,2.2489194E2,6.4105545E1,-4.493195E0],"categories":[],"categories_nodes":[],"categories_segments":[],"categories_sizes":[],"default_left":[0,0,0,0,0,0,0,0,0,0,0,0,0,0,0,0,0,0,0,0,0,0,0,0,0,0,0,0,0,0,0,0,0,0,0,0,0,0,0,0,0,0,0,0,0,0,0,0,0,0,0,0,0,0,0,0,0,0,0,0,0,0,0,0,0,0,0,0,0,0,0,0,0,0,0,0,0,0,0,0,0,0,0,0,0,0,0,0,0,0,0,0,0,0,0,0,0,0,0,0,0,0,0,0,0,0,0,0,0,0,0],"id":5,"left_children":[1,3,5,7,9,11,13,15,17,19,21,-1,23,25,27,29,31,33,35,37,39,41,43,45,47,49,51,53,55,57,59,-1,61,63,65,67,69,71,73,75,77,79,81,83,85,87,89,91,93,95,97,99,101,103,105,107,109,-1,-1,-1,-1,-1,-1,-1,-1,-1,-1,-1,-1,-1,-1,-1,-1,-1,-1,-1,-1,-1,-1,-1,-1,-1,-1,-1,-1,-1,-1,-1,-1,-1,-1,-1,-1,-1,-1,-1,-1,-1,-1,-1,-1,-1,-1,-1,-1,-1,-1,-1,-1,-1,-1],"loss_changes":[6.4362135E6,3.743217E6,6.100237E5,3.855029E6,1.2084862E6,2.1740638E5,1.3500035E6,7.350398E6,1.8635802E6,8.21578E5,8.307504E6,0E0,2.0900538E5,1.1715165E6,3.2144228E5,4.231309E5,6.997512E6,3.89698E5,3.1674355E6,4.8576355E6,6.196252E5,3.694588E6,9.779205E5,2.0570406E5,3.7029147E5,2.582796E5,4.1679172E6,1.4356894E5,1.708575E6,4.5188403E5,4.4956547E4,0E0,3.8569255E6,4.540872E4,7.814301E5,4.7341775E6,2.3416812E5,7.163903E5,2.422763E6,2.9598309E4,1.5710212E5,8.5661914E2,2.748482E6,1.9633698E6,3.9829656E5,1.457925E5,7.7183125E4,1.5426999E6,3.181207E5,3.222496E5,1.0188443E5,2.249031E6,1.4767335E6,8.388519E4,9.077099E4,7.27547E5,5.0577694E5,0E0,0E0,0E0,0E0,0E0,0E0,0E0,0E0,0E0,0E0,0E0,0E0,0E0,0E0,0E0,0E0,0E0,0E0,0E0,0E0,0E0,0E0,0E0,0E0,0E0,0E0,0E0,0E0,0E0,0E0,0E0,0E0,0E0,0E0,0E0,0E0,0E0,0E0,0E0,0E0,0E0,0E0,0E0,0E0,0E0,0E0,0E0,0E0,0E0,0E0,0E0,0E0,0E0,0E0],"parents":[2147483647,0,0,1,1,2,2,3,3,4,4,5,5,6,6,7,7,8,8,9,9,10,10,12,12,13,13,14,14,15,15,16,16,17,17,18,18,19,19,20,20,21,21,22,22,23,23,24,24,25,25,26,26,27,27,28,28,29,29,30,30,32,32,33,33,34,34,35,35,36,36,37,37,38,38,39,39,40,40,41,41,42,42,43,43,44,44,45,45,46,46,47,47,48,48,49,49,50,50,51,51,52,52,53,53,54,54,55,55,56,56],"right_children":[2,4,6,8,10,12,14,16,18,20,22,-1,24,26,28,30,32,34,36,38,40,42,44,46,48,50,52,54,56,58,60,-1,62,64,66,68,70,72,74,76,78,80,82,84,86,88,90,92,94,96,98,100,102,104,106,108,110,-1,-1,-1,-1,-1,-1,-1,-1,-1,-1,-1,-1,-1,-1,-1,-1,-1,-1,-1,-1,-1,-1,-1,-1,-1,-1,-1,-1,-1,-1,-1,-1,-1,-1,-1,-1,-1,-1,-1,-1,-1,-1,-1,-1,-1,-1,-1,-1,-1,-1,-1,-1,-1,-1],"split_conditions":[-1.2096678E0,-5.790719E-1,2.4197674E-1,-4.2926535E-1,5.342541E-1,-1.595453E0,5.7600796E-1,-6.8089074E-1,9.100392E-1,4.0899235E-1,-6.56959E-1,-4.8603775E1,-1.1498201E0,-4.5497373E-1,-2.8221852E-1,2.2805877E-1,-6.7678815E-1,-9.187264E-1,-2.9946748E-2,3.811564E-1,-1.2957033E0,-3.6026117E-1,6.734337E-1,-4.1814125E-1,-4.1814125E-1,-1.595453E0,-6.3150924E-1,2.2456474E0,-2.4844682E-1,-8.297068E-1,4.9250016E-1,7.197391E2,-5.282745E-1,-1.0974352E0,-3.7041384E-1,-3.656752E-1,6.226377E-1,-8.546679E-3,-6.897797E-1,-1.6191334E-1,-5.613086E-1,-1.3208214E0,6.1776185E-1,6.595158E-1,1.0492189E0,-6.955997E-1,-9.263623E-1,-7.538636E-1,-6.4465123E-1,5.0200915E-1,-1.0974352E0,-6.234545E-1,5.6209E-1,1.5181729E-2,6.455978E-1,-1.690668E-1,-5.523566E-1,-2.7753077E1,9.701595E1,-1.7098434E1,-7.366644E1,7.9183685E1,3.8832986E2,6.4227815E0,-5.7887356E1,9.668393E1,2.1473095E1,6.293511E1,5.800993E2,5.7998547E1,-3.8655693E1,1.278864E1,-3.0494513E1,9.184067E1,5.595802E2,-1.3937924E1,1.7196861E1,-4.3676E1,-1.351645E2,-8.818988E0,-3.631864E1,4.95034E2,-2.1591894E1,2.1220892E1,2.3518842E2,-1.5649237E1,2.9893446E1,-1.1471104E2,-2.8586555E1,-1.9525473E1,-8.936727E0,1.1966517E2,-5.355339E-1,-1.738166E0,-1.3625766E1,5.7246227E1,-3.4899944E1,3.020923E1,-9.895923E0,4.3054483E2,1.1298353E2,1.5768636E1,2.0013469E2,-6.377111E0,-1.451526E1,-2.808946E1,1.6152334E1,4.827575E1,2.2489194E2,6.4105545E1,-4.493195E0],"split_indices":[3,4,2,1,2,4,2,1,2,2,1,0,2,5,5,2,1,0,1,2,3,0,2,3,3,4,3,4,5,2,2,0,1,0,2,1,0,2,1,1,0,0,2,2,2,4,1,4,1,0,0,1,2,1,2,4,3,0,0,0,0,0,0,0,0,0,0,0,0,0,0,0,0,0,0,0,0,0,0,0,0,0,0,0,0,0,0,0,0,0,0,0,0,0,0,0,0,0,0,0,0,0,0,0,0,0,0,0,0,0,0],"split_type":[0,0,0,0,0,0,0,0,0,0,0,0,0,0,0,0,0,0,0,0,0,0,0,0,0,0,0,0,0,0,0,0,0,0,0,0,0,0,0,0,0,0,0,0,0,0,0,0,0,0,0,0,0,0,0,0,0,0,0,0,0,0,0,0,0,0,0,0,0,0,0,0,0,0,0,0,0,0,0,0,0,0,0,0,0,0,0,0,0,0,0,0,0,0,0,0,0,0,0,0,0,0,0,0,0,0,0,0,0,0,0],"sum_hessian":[3.148E3,4.3E2,2.718E3,1.51E2,2.79E2,1.508E3,1.21E3,3.3E1,1.18E2,1.7E2,1.09E2,1.1E1,1.497E3,3.66E2,8.44E2,1.5E1,1.8E1,9.8E1,2E1,1.49E2,2.1E1,8E0,1.01E2,3.98E2,1.099E3,1.53E2,2.13E2,5.3E2,3.14E2,9E0,6E0,2E0,1.6E1,5E0,9.3E1,6E0,1.4E1,1.45E2,4E0,1.1E1,1E1,2E0,6E0,2.2E1,7.9E1,4.4E1,3.54E2,2.55E2,8.44E2,1.5E1,1.38E2,1.2E1,2.01E2,5E2,3E1,9E0,3.05E2,4E0,5E0,3E0,3E0,1.1E1,5E0,1E0,4E0,1.4E1,7.9E1,4E0,2E0,1.2E1,2E0,9.1E1,5.4E1,3E0,1E0,8E0,3E0,4E0,6E0,1E0,1E0,5E0,1E0,1.8E1,4E0,5.5E1,2.4E1,1E0,4.3E1,8.1E1,2.73E2,9E0,2.46E2,3.38E2,5.06E2,1.1E1,4E0,5E0,1.33E2,2E0,1E1,1.98E2,3E0,1.81E2,3.19E2,4E0,2.6E1,6E0,3E0,9E0,2.96E2],"tree_param":{"num_deleted":"0","num_feature":"6","num_nodes":"111","size_leaf_vector":"1"}},{"base_weights":[3.8586335E0,8.9130585E1,-9.659597E0,1.8292473E2,3.7895447E1,6.7160624E-1,-2.410019E1,3.9432892E2,1.08997635E2,8.4897125E1,-1.1784385E1,6.0948846E2,-8.672055E-1,-6.3956094E0,-2.781567E1,1.0362263E1,6.338763E2,1.6961521E1,2.446823E2,2.5171631E2,3.6904995E1,3.129074E1,-2.1209993E1,8.961292E0,2.378212E2,1.1454105E2,-5.2530584E0,5.3479557E1,-3.2194992E1,-1.4544789E1,-3.2623787E1,1.1037001E2,-1.3398627E2,4.855322E2,3.560414E2,9.348282E1,-1.5076503E2,7.276486E2,1.2385653E2,5.5892803E1,6.378138E2,-2.3510315E2,6.270477E1,-1.6115602E1,1.3404367E2,-3.1976664E1,-1.7098944E1,7.6288745E2,5.2387844E1,-1.7763319E1,1.3613399E1,2.2473331E1,1.3058511E2,1.7884447E1,-3.3292274E1,-2.7095911E1,1.0730608E1,-4.3833473E1,-2.6774248E1,-2.1092346E1,7.276196E1,-1.3251293E1,-5.70915E1,1.702267E2,-6.95253E1,1.4906093E1,3.2278317E2,-8.052207E1,-9.1088705E0,8.17733E1,4.640794E2,4.932128E1,-3.593964E1,3.180636E1,-1.2918094E2,-3.684684E1,-8.684587E1,2.1333757E2,1.2905648E1,-6.456367E0,-5.1524734E-1,5.684814E1,-6.461336E0,-8.808298E0,2.9786435E-1,3.7007893E1,3.4443585E2,-2.6351E1,5.0248608E1,-6.147268E0,3.171878E1,-8.9416485E0,1.1579214E1,1.5238215E1,-1.4690377E1,2.342142E2,1.2347228E1,-3.243786E0,-1.0433041E1,-3.1276207E0,-1.4141649E1,-2.1412892E0,3.8987885E1,-1.06163225E1,-1.6557896E1,-1.2101947E1,-5.8612313E0],"categories":[],"categories_nodes":[],"categories_segments":[],"categories_sizes":[],"default_left":[0,0,0,0,0,0,0,0,0,0,0,0,0,0,0,0,0,0,0,0,0,0,0,0,0,0,0,0,0,0,0,0,0,0,0,0,0,0,0,0,0,0,0,0,0,0,0,0,0,0,0,0,0,0,0,0,0,0,0,0,0,0,0,0,0,0,0,0,0,0,0,0,0,0,0,0,0,0,0,0,0,0,0,0,0,0,0,0,0,0,0,0,0,0,0,0,0,0,0,0,0,0,0,0,0,0,0],"id":6,"left_children":[1,3,5,7,9,11,13,15,17,19,21,23,25,27,29,31,33,35,37,39,41,43,45,-1,-1,47,49,51,53,55,57,59,61,-1,63,65,67,69,71,73,-1,75,77,79,81,-1,83,85,87,89,91,93,95,-1,97,99,101,103,105,-1,-1,-1,-1,-1,-1,-1,-1,-1,-1,-1,-1,-1,-1,-1,-1,-1,-1,-1,-1,-1,-1,-1,-1,-1,-1,-1,-1,-1,-1,-1,-1,-1,-1,-1,-1,-1,-1,-1,-1,-1,-1,-1,-1,-1,-1,-1,-1],"loss_changes":[3.630795E6,2.0642622E6,4.056602E5,2.332551E6,6.5481044E5,1.4863799E6,7.441781E4,3.5805815E6,1.4194692E6,1.1435755E6,5.6286938E4,4.0117712E5,8.0185875E5,3.0758072E5,5.9313562E4,2.457636E5,5.988879E6,8.9968506E5,2.5941962E6,1.1626378E7,8.077476E5,1.2393871E5,3.784008E4,0E0,0E0,2.297249E6,3.6041488E5,1.4051045E5,1.5987734E4,7.991665E4,4.3874E4,2.5585405E5,2.7002023E4,0E0,2.616462E6,2.0118699E6,3.0346566E5,2.9338265E6,3.9512294E5,7.7727075E5,0E0,2.5506E4,1.2969439E6,1.3639907E3,7.309736E4,0E0,2.4210021E4,1.0902012E6,8.8632044E5,3.113811E5,6.617794E5,9.1511055E4,9.562396E5,0E0,4.2292656E3,5.5641656E4,1.7988223E5,2.0496656E4,4.378172E4,0E0,0E0,0E0,0E0,0E0,0E0,0E0,0E0,0E0,0E0,0E0,0E0,0E0,0E0,0E0,0E0,0E0,0E0,0E0,0E0,0E0,0E0,0E0,0E0,0E0,0E0,0E0,0E0,0E0,0E0,0E0,0E0,0E0,0E0,0E0,0E0,0E0,0E0,0E0,0E0,0E0,0E0,0E0,0E0,0E0,0E0,0E0,0E0],"parents":[2147483647,0,0,1,1,2,2,3,3,4,4,5,5,6,6,7,7,8,8,9,9,10,10,11,11,12,12,13,13,14,14,15,15,16,16,17,17,18,18,19,19,20,20,21,21,22,22,25,25,26,26,27,27,28,28,29,29,30,30,31,31,32,32,34,34,35,35,36,36,37,37,38,38,39,39,41,41,42,42,43,43,44,44,46,46,47,47,48,48,49,49,50,50,51,51,52,52,54,54,55,55,56,56,57,57,58,58],"right_children":[2,4,6,8,10,12,14,16,18,20,22,24,26,28,30,32,34,36,38,40,42,44,46,-1,-1,48,50,52,54,56,58,60,62,-1,64,66,68,70,72,74,-1,76,78,80,82,-1,84,86,88,90,92,94,96,-1,98,100,102,104,106,-1,-1,-1,-1,-1,-1,-1,-1,-1,-1,-1,-1,-1,-1,-1,-1,-1,-1,-1,-1,-1,-1,-1,-1,-1,-1,-1,-1,-1,-1,-1,-1,-1,-1,-1,-1,-1,-1,-1,-1,-1,-1,-1,-1,-1,-1,-1,-1],"split_conditions":[-1.2096678E0,-5.790719E-1,2.3446454E-1,-3.9439332E-1,4.006245E-1,-1.0995424E0,-8.5171056E-1,-6.8089074E-1,7.5694156E-1,-7.561049E-1,-9.489265E-1,-1.0304195E0,-6.934548E-1,-4.1081074E-1,-8.490969E-1,2.2805877E-1,-6.56959E-1,3.950744E-1,-2.9946748E-2,5.6209E-1,-6.661214E-1,-9.920037E-1,-7.879529E-1,8.961292E0,2.378212E2,-6.234545E-1,-4.7764957E-1,4.3091068E-1,-2.0133183E0,-9.263623E-1,-5.4482156E-1,-8.297068E-1,4.9250016E-1,4.855322E2,4.9250016E-1,3.3940253E-1,2.3193513E-1,-2.9524747E-1,2.6900692E0,-7.595237E-1,6.378138E2,-5.166314E-1,-6.56959E-1,2.4197674E-1,1.30633E-1,-3.1976664E1,-3.622564E-1,-6.7063427E-1,-3.62751E-1,2.8794723E0,-3.2865995E-1,-8.875049E-2,3.2548454E-1,1.7884447E1,-1.5256052E0,-9.920037E-1,2.2456474E0,-6.8089074E-1,1.401237E-1,-2.1092346E1,7.276196E1,-1.3251293E1,-5.70915E1,1.702267E2,-6.95253E1,1.4906093E1,3.2278317E2,-8.052207E1,-9.1088705E0,8.17733E1,4.640794E2,4.932128E1,-3.593964E1,3.180636E1,-1.2918094E2,-3.684684E1,-8.684587E1,2.1333757E2,1.2905648E1,-6.456367E0,-5.1524734E-1,5.684814E1,-6.461336E0,-8.808298E0,2.9786435E-1,3.7007893E1,3.4443585E2,-2.6351E1,5.0248608E1,-6.147268E0,3.171878E1,-8.9416485E0,1.1579214E1,1.5238215E1,-1.4690377E1,2.342142E2,1.2347228E1,-3.243786E0,-1.0433041E1,-3.1276207E0,-1.4141649E1,-2.1412892E0,3.8987885E1,-1.06163225E1,-1.6557896E1,-1.2101947E1,-5.8612313E0],"split_indices":[3,4,4,1,4,3,0,1,2,1,1,0,3,5,1,2,1,2,1,2,1,1,2,0,0,1,4,1,0,1,1,2,2,0,2,2,1,1,1,1,0,0,1,2,2,0,1,1,5,1,2,1,2,0,2,1,4,1,0,0,0,0,0,0,0,0,0,0,0,0,0,0,0,0,0,0,0,0,0,0,0,0,0,0,0,0,0,0,0,0,0,0,0,0,0,0,0,0,0,0,0,0,0,0,0,0,0],"split_type":[0,0,0,0,0,0,0,0,0,0,0,0,0,0,0,0,0,0,0,0,0,0,0,0,0,0,0,0,0,0,0,0,0,0,0,0,0,0,0,0,0,0,0,0,0,0,0,0,0,0,0,0,0,0,0,0,0,0,0,0,0,0,0,0,0,0,0,0,0,0,0,0,0,0,0,0,0,0,0,0,0,0,0,0,0,0,0,0,0,0,0,0,0,0,0,0,0,0,0,0,0,0,0,0,0,0,0],"sum_hessian":[3.148E3,4.3E2,2.718E3,1.51E2,2.79E2,1.585E3,1.133E3,3.8E1,1.13E2,1.43E2,1.36E2,3E0,1.582E3,1.97E2,9.36E2,1.5E1,2.3E1,6.8E1,4.5E1,3.1E1,1.12E2,2.4E1,1.12E2,1E0,2E0,5.7E1,1.525E3,5.9E1,1.38E2,2.5E2,6.86E2,9E0,6E0,4E0,1.9E1,4.7E1,2.1E1,8E0,3.7E1,2.9E1,2E0,9E0,1.03E2,1.7E1,7E0,4E0,1.08E2,4E0,5.3E1,9.17E2,6.08E2,4.3E1,1.6E1,1E0,1.37E2,1.67E2,8.3E1,2.33E2,4.53E2,4E0,5E0,3E0,3E0,1.4E1,5E0,4.6E1,1E0,1E1,1.1E1,6E0,2E0,3.2E1,5E0,2.7E1,2E0,4E0,5E0,2E0,1.01E2,1.2E1,5E0,5E0,2E0,6.4E1,4.4E1,2E0,2E0,2.4E1,2.9E1,8.98E2,1.9E1,2.22E2,3.86E2,3.1E1,1.2E1,1E0,1.5E1,9E0,1.28E2,9.2E1,7.5E1,7.3E1,1E1,1.36E2,9.7E1,1.56E2,2.97E2],"tree_param":{"num_deleted":"0","num_feature":"6","num_nodes":"107","size_leaf_vector":"1"}},{"base_weights":[3.6305008E0,6.707998E1,-6.428475E0,1.3709239E2,2.8833666E1,-1.6256149E-1,-2.4640804E1,2.9058307E2,8.337987E1,-1.239551E1,7.320867E1,-8.592939E0,2.104539E1,-1.5606803E1,-6.701711E1,6.086525E0,4.681398E2,-2.585416E2,1.0476941E2,1.684605E1,-1.0221266E2,8.1606067E2,4.42967E1,-5.5797424E0,-3.484513E1,4.2263885E1,-1.5314133E1,-1.8675926E1,3.3800848E2,-1.2438978E2,-5.0947975E1,6.3054424E1,-3.8082848E1,4.7868478E2,2.9311398E2,-2.329423E1,-1.0439452E2,1.3209242E2,-1.05059715E2,-2.453658E1,1.2939703E2,-2.6848774E1,-2.0593219E2,2.305636E2,4.7370734E2,3.6800266E2,1.4502794E1,-1.5199185E1,5.6495576E0,1.6666112E0,-4.118312E1,7.076837E1,-4.385591E0,-2.1531088E1,7.459339E1,-2.6560932E1,1.3166251E1,2.5377551E2,-4.4854927E-1,2.0813095E1,-1.442342E2,-2.523655E1,-8.1345E1,-4.5679695E1,1.9976234E1,1.16733894E2,-1.3337524E2,-1.1568458E1,1.0860535E0,8.091488E0,6.7295166E1,-4.7599606E1,1.6565786E1,-1.4397551E0,-4.544886E1,2.6244858E2,-5.6795964E0,1.7474132E0,-1.8015533E1,-2.2671776E1,-7.393964E1,-4.27137E1,1.2070124E2,-3.514935E1,5.1025098E2,-5.225144E1,1.2853532E1,-3.5160015E0,-1.9697243E1,1.6939201E1,-4.4565654E0,-7.980906E0,2.1025003E1,-1.57494955E1,-5.1100082E0,-1.526258E0,3.1034224E1,-6.6542506E0,2.107597E1,-3.5594563E0,-1.50877495E1,-1.20688095E1,2.3509338E2,-3.2226078E1,-7.574977E0,2.3530567E1,-8.24027E0,-8.632483E0,5.5755687E0,-1.57310095E1,3.6084373E1,-6.729537E1,-3.285799E1,-1.707374E1,1.8628161E0,-3.209407E1,-1.3570111E1],"categories":[],"categories_nodes":[],"categories_segments":[],"categories_sizes":[],"default_left":[0,0,0,0,0,0,0,0,0,0,0,0,0,0,0,0,0,0,0,0,0,0,0,0,0,0,0,0,0,0,0,0,0,0,0,0,0,0,0,0,0,0,0,0,0,0,0,0,0,0,0,0,0,0,0,0,0,0,0,0,0,0,0,0,0,0,0,0,0,0,0,0,0,0,0,0,0,0,0,0,0,0,0,0,0,0,0,0,0,0,0,0,0,0,0,0,0,0,0,0,0,0,0,0,0,0,0,0,0,0,0,0,0,0,0,0,0],"id":7,"left_children":[1,3,5,7,9,11,13,15,17,19,21,23,25,27,29,31,33,35,37,39,41,43,45,47,49,51,53,55,57,59,61,-1,63,-1,65,67,-1,69,71,73,75,77,79,81,-1,83,85,87,89,91,93,95,97,99,101,103,105,-1,107,109,111,113,115,-1,-1,-1,-1,-1,-1,-1,-1,-1,-1,-1,-1,-1,-1,-1,-1,-1,-1,-1,-1,-1,-1,-1,-1,-1,-1,-1,-1,-1,-1,-1,-1,-1,-1,-1,-1,-1,-1,-1,-1,-1,-1,-1,-1,-1,-1,-1,-1,-1,-1,-1,-1,-1,-1],"loss_changes":[2.0102389E6,1.1501431E6,3.1027978E5,1.2289158E6,5.1318003E5,3.6205394E5,2.6540212E5,1.9672068E6,8.608312E5,3.851753E5,2.8632888E6,1.1442586E5,4.4502803E5,6.303538E5,1.0613794E5,1.522402E5,4.2684015E6,1.391779E5,6.330594E5,5.2017475E5,2.7587247E5,1.8694998E6,1.2580878E6,1.4061939E5,3.454889E4,4.8432825E5,1.2066267E5,1.437139E5,8.599077E5,7.7920125E4,7.375756E4,0E0,1.7746062E5,0E0,1.7309961E6,1.3723302E3,0E0,9.246451E5,1.2045553E5,2.0475283E5,3.333636E6,2.4216656E4,6.06325E4,3.135315E5,0E0,7.3123975E6,6.5450556E5,1.222935E5,6.27044E5,4.634909E4,3.3809703E4,5.6075725E5,1.8618031E5,5.5006188E4,1.1713385E6,4.583903E4,3.0449694E5,0E0,2.6914219E3,3.5451234E4,3.935997E4,5.4141652E4,3.5892656E4,0E0,0E0,0E0,0E0,0E0,0E0,0E0,0E0,0E0,0E0,0E0,0E0,0E0,0E0,0E0,0E0,0E0,0E0,0E0,0E0,0E0,0E0,0E0,0E0,0E0,0E0,0E0,0E0,0E0,0E0,0E0,0E0,0E0,0E0,0E0,0E0,0E0,0E0,0E0,0E0,0E0,0E0,0E0,0E0,0E0,0E0,0E0,0E0,0E0,0E0,0E0,0E0,0E0,0E0],"parents":[2147483647,0,0,1,1,2,2,3,3,4,4,5,5,6,6,7,7,8,8,9,9,10,10,11,11,12,12,13,13,14,14,15,15,16,16,17,17,18,18,19,19,20,20,21,21,22,22,23,23,24,24,25,25,26,26,27,27,28,28,29,29,30,30,32,32,34,34,35,35,37,37,38,38,39,39,40,40,41,41,42,42,43,43,45,45,46,46,47,47,48,48,49,49,50,50,51,51,52,52,53,53,54,54,55,55,56,56,58,58,59,59,60,60,61,61,62,62],"right_children":[2,4,6,8,10,12,14,16,18,20,22,24,26,28,30,32,34,36,38,40,42,44,46,48,50,52,54,56,58,60,62,-1,64,-1,66,68,-1,70,72,74,76,78,80,82,-1,84,86,88,90,92,94,96,98,100,102,104,106,-1,108,110,112,114,116,-1,-1,-1,-1,-1,-1,-1,-1,-1,-1,-1,-1,-1,-1,-1,-1,-1,-1,-1,-1,-1,-1,-1,-1,-1,-1,-1,-1,-1,-1,-1,-1,-1,-1,-1,-1,-1,-1,-1,-1,-1,-1,-1,-1,-1,-1,-1,-1,-1,-1,-1,-1,-1,-1],"split_conditions":[-1.2096678E0,-5.790719E-1,8.4602374E-1,-3.9439332E-1,3.811564E-1,1.9820409E-1,1.8338785E-1,-6.8089074E-1,-3.7593168E-1,1.4455096E-1,4.0899235E-1,-2.3069723E-1,1.0151314E-1,1.2321655E-1,-4.1814125E-1,-9.6340364E-1,-6.7678815E-1,-3.9029074E-1,8.2368517E-1,-9.205449E-2,-1.2957033E0,-6.897797E-1,-7.561049E-1,2.4197674E-1,-4.8175758E-1,8.106296E-1,8.0134654E-1,7.757992E-2,-4.1814125E-1,-8.714607E-1,9.0339214E-1,6.3054424E1,5.3328323E-1,4.7868478E2,5.8992594E-1,-2.7090672E-1,-1.0439452E2,-3.8259977E-1,1.0247326E0,1.2034415E0,-6.421855E-2,2.2805877E-1,-9.82431E-1,-5.970504E-1,4.7370734E2,5.6209E-1,5.342541E-1,1.5846893E-1,5.7600796E-1,-6.7660916E-1,3.9567582E-2,-9.912349E-1,2.2456474E0,6.4492905E-1,5.8886033E-1,-1.595453E0,1.1140871E0,2.5377551E2,8.90701E-1,9.5535815E-1,4.1791916E-1,4.869794E-1,-3.596371E-1,-4.5679695E1,1.9976234E1,1.16733894E2,-1.3337524E2,-1.1568458E1,1.0860535E0,8.091488E0,6.7295166E1,-4.7599606E1,1.6565786E1,-1.4397551E0,-4.544886E1,2.6244858E2,-5.6795964E0,1.7474132E0,-1.8015533E1,-2.2671776E1,-7.393964E1,-4.27137E1,1.2070124E2,-3.514935E1,5.1025098E2,-5.225144E1,1.2853532E1,-3.5160015E0,-1.9697243E1,1.6939201E1,-4.4565654E0,-7.980906E0,2.1025003E1,-1.57494955E1,-5.1100082E0,-1.526258E0,3.1034224E1,-6.6542506E0,2.107597E1,-3.5594563E0,-1.50877495E1,-1.20688095E1,2.3509338E2,-3.2226078E1,-7.574977E0,2.3530567E1,-8.24027E0,-8.632483E0,5.5755687E0,-1.57310095E1,3.6084373E1,-6.729537E1,-3.285799E1,-1.707374E1,1.8628161E0,-3.209407E1,-1.3570111E1],"split_indices":[3,4,0,1,2,0,1,1,1,2,2,0,3,1,3,0,1,1,0,2,3,1,1,2,2,4,0,5,3,2,1,0,0,0,2,0,0,0,0,0,2,2,1,0,0,2,2,2,2,2,3,4,4,1,1,4,0,0,0,1,1,1,3,0,0,0,0,0,0,0,0,0,0,0,0,0,0,0,0,0,0,0,0,0,0,0,0,0,0,0,0,0,0,0,0,0,0,0,0,0,0,0,0,0,0,0,0,0,0,0,0,0,0,0,0,0,0],"split_type":[0,0,0,0,0,0,0,0,0,0,0,0,0,0,0,0,0,0,0,0,0,0,0,0,0,0,0,0,0,0,0,0,0,0,0,0,0,0,0,0,0,0,0,0,0,0,0,0,0,0,0,0,0,0,0,0,0,0,0,0,0,0,0,0,0,0,0,0,0,0,0,0,0,0,0,0,0,0,0,0,0,0,0,0,0,0,0,0,0,0,0,0,0,0,0,0,0,0,0,0,0,0,0,0,0,0,0,0,0,0,0,0,0,0,0,0,0],"sum_hessian":[3.148E3,4.3E2,2.718E3,1.51E2,2.79E2,2.023E3,6.95E2,3.8E1,1.13E2,1.45E2,1.34E2,1.448E3,5.75E2,5.74E2,1.21E2,1.5E1,2.3E1,6E0,1.07E2,1.1E2,3.5E1,4E0,1.3E2,1.3E3,1.48E2,3.63E2,2.12E2,5.7E2,4E0,2.5E1,9.6E1,2E0,1.3E1,2E0,2.1E1,2E0,4E0,9.5E1,1.2E1,8.1E1,2.9E1,2.1E1,1.4E1,3E0,1E0,1E1,1.2E2,7E2,6E2,2.2E1,1.26E2,2.25E2,1.38E2,1.99E2,1.3E1,4.57E2,1.13E2,1E0,3E0,3E0,2.2E1,5.3E1,4.3E1,6E0,7E0,1.9E1,2E0,1E0,1E0,4.5E1,5E1,9E0,3E0,7.1E1,1E1,4E0,2.5E1,1.1E1,1E1,4E0,1E1,1E0,2E0,8E0,2E0,1.5E1,1.05E2,6.56E2,4.4E1,1.72E2,4.28E2,1.6E1,6E0,8.5E1,4.1E1,6.8E1,1.57E2,1.12E2,2.6E1,1.5E2,4.9E1,1.2E1,1E0,6E0,4.51E2,4.3E1,7E1,1E0,2E0,2E0,1E0,5E0,1.7E1,2.6E1,2.7E1,2.4E1,1.9E1],"tree_param":{"num_deleted":"0","num_feature":"6","num_nodes":"117","size_leaf_vector":"1"}},{"base_weights":[3.122032E0,5.0467056E1,-4.383973E0,1.1440624E1,8.749923E1,-1.5708263E0,-3.7306225E1,4.79115E1,-4.6518578E1,5.6310364E2,5.2612442E1,-3.0428686E0,1.9127193E2,-5.9494064E1,1.4470427E1,1.3021829E1,2.0146497E2,-1.0465817E1,-1.7412473E2,2.7183603E1,9.173632E2,1.12999756E2,-2.5606554E1,-1.0337829E1,8.042939E0,8.409097E2,1.690797E1,-8.316374E1,-2.726197E1,8.221799E1,-1.5299608E1,3.4629597E1,-1.7870322E2,2.280447E2,5.1720726E1,3.569081E1,-6.899442E1,-5.743518E1,-2.0336208E2,9.6561E1,-4.6519478E1,-3.8720367E0,4.9653778E2,8.399761E1,4.9765424E2,7.438713E0,-1.3611168E2,-7.774238E0,-5.044285E1,1.7436852E2,3.5439692E0,3.2896518E2,1.1098124E1,3.1160847E1,-3.2062668E1,-9.745953E1,-4.4383633E1,2.9428062E1,-3.1461777E1,2.0620117E2,-9.2228264E1,1.15887115E2,-3.05528E1,3.4934304E0,4.045816E1,-1.3022676E2,-8.601697E0,5.688129E1,-5.3641552E1,3.9381578E0,6.5567665E1,-3.8965836E1,1.7906523E1,-3.0458797E1,1.7412049E0,-8.733981E1,-3.667577E1,-1.7030975E1,1.5094955E1,9.789138E0,8.001109E1,3.393405E2,2.939145E1,9.689486E0,-4.4230347E1,-1.4294687E1,-7.4630295E1,-3.1279917E0,2.190945E1,-2.9393656E1,-2.1886115E-1,-2.525756E1,1.6038141E2,-2.9721806E0,5.445644E0,-2.7123413E0,-1.3177873E1,-9.811185E0,-3.2351612E1,-1.8066805E1,-8.291115E0,7.0687354E-1,2.06573E1,-1.6652966E1,-5.2346325E0,7.194614E1,-2.4541628E1,-2.9154135E1,-7.8916264E0,-2.654919E0,4.4785126E1,-2.7610607E1,-8.6757934E-1],"categories":[],"categories_nodes":[],"categories_segments":[],"categories_sizes":[],"default_left":[0,0,0,0,0,0,0,0,0,0,0,0,0,0,0,0,0,0,0,0,0,0,0,0,0,0,0,0,0,0,0,0,0,0,0,0,0,0,0,0,0,0,0,0,0,0,0,0,0,0,0,0,0,0,0,0,0,0,0,0,0,0,0,0,0,0,0,0,0,0,0,0,0,0,0,0,0,0,0,0,0,0,0,0,0,0,0,0,0,0,0,0,0,0,0,0,0,0,0,0,0,0,0,0,0,0,0,0,0,0,0,0,0],"id":8,"left_children":[1,3,5,7,9,11,13,15,17,19,21,23,25,27,29,31,33,35,37,39,41,43,45,47,49,51,53,55,57,59,61,63,65,-1,67,69,71,73,75,-1,-1,77,-1,79,81,83,85,87,89,91,93,-1,-1,-1,95,97,99,101,103,105,107,109,111,-1,-1,-1,-1,-1,-1,-1,-1,-1,-1,-1,-1,-1,-1,-1,-1,-1,-1,-1,-1,-1,-1,-1,-1,-1,-1,-1,-1,-1,-1,-1,-1,-1,-1,-1,-1,-1,-1,-1,-1,-1,-1,-1,-1,-1,-1,-1,-1,-1,-1],"loss_changes":[1.1192875E6,6.2189475E5,2.5176194E5,4.4824538E5,3.6372745E6,7.1196694E5,2.4670666E5,6.938425E5,3.7542306E5,2.8228845E6,9.806446E5,2.0128902E5,2.1379768E6,1.12171375E5,1.3235297E5,4.4946272E5,1.9685178E6,1.7805886E5,4.9730375E4,4.2585384E5,6.1232855E6,1.2634274E6,3.333146E5,1.5392992E5,7.386963E5,7.8148925E5,7.1467305E4,4.3352062E4,1.6401523E4,4.5158562E5,9.5587414E4,2.2189734E5,4.0902734E5,0E0,6.696169E5,1.4979905E5,2.3498845E5,1.4531668E4,6.4074688E4,0E0,0E0,1.7188762E4,0E0,1.0236572E6,1.9147118E6,2.7811762E5,1.9742934E5,3.033943E5,2.1261406E5,2.466722E6,1.8940747E5,0E0,0E0,0E0,2.6071494E3,3.8144062E4,4.966871E3,5.1749097E3,1.9587582E4,1.3580947E5,3.8178906E2,2.2150086E4,7.116159E4,0E0,0E0,0E0,0E0,0E0,0E0,0E0,0E0,0E0,0E0,0E0,0E0,0E0,0E0,0E0,0E0,0E0,0E0,0E0,0E0,0E0,0E0,0E0,0E0,0E0,0E0,0E0,0E0,0E0,0E0,0E0,0E0,0E0,0E0,0E0,0E0,0E0,0E0,0E0,0E0,0E0,0E0,0E0,0E0,0E0,0E0,0E0,0E0,0E0,0E0],"parents":[2147483647,0,0,1,1,2,2,3,3,4,4,5,5,6,6,7,7,8,8,9,9,10,10,11,11,12,12,13,13,14,14,15,15,16,16,17,17,18,18,19,19,20,20,21,21,22,22,23,23,24,24,25,25,26,26,27,27,28,28,29,29,30,30,31,31,32,32,34,34,35,35,36,36,37,37,38,38,41,41,43,43,44,44,45,45,46,46,47,47,48,48,49,49,50,50,54,54,55,55,56,56,57,57,58,58,59,59,60,60,61,61,62,62],"right_children":[2,4,6,8,10,12,14,16,18,20,22,24,26,28,30,32,34,36,38,40,42,44,46,48,50,52,54,56,58,60,62,64,66,-1,68,70,72,74,76,-1,-1,78,-1,80,82,84,86,88,90,92,94,-1,-1,-1,96,98,100,102,104,106,108,110,112,-1,-1,-1,-1,-1,-1,-1,-1,-1,-1,-1,-1,-1,-1,-1,-1,-1,-1,-1,-1,-1,-1,-1,-1,-1,-1,-1,-1,-1,-1,-1,-1,-1,-1,-1,-1,-1,-1,-1,-1,-1,-1,-1,-1,-1,-1,-1,-1,-1,-1],"split_conditions":[-1.2096678E0,3.811564E-1,1.6220288E0,-6.421855E-2,4.368283E-1,1.5406609E0,2.6900692E0,-1.0994721E-1,-1.2853789E0,-6.897797E-1,6.353563E-1,2.4197674E-1,-9.804453E-1,-5.038111E-2,-9.804453E-1,-2.5969166E-1,-5.6613576E-2,-3.9439332E-1,-9.82431E-1,-8.449943E-1,-1.2957033E0,5.258172E-1,6.4497626E-1,1.5846893E-1,2.6981267E-1,1.5748491E0,-9.481199E-1,3.9567582E-2,-1.0995424E0,1.3832501E0,2.8794723E0,-4.7507757E-1,-1.6574241E-1,2.280447E2,-3.7041384E-1,-1.2957033E0,2.5589472E-1,-9.94055E-1,-1.277251E-1,9.6561E1,-4.6519478E1,-1.6191334E-1,4.9653778E2,8.543673E-1,6.052707E-1,1.2719064E0,-1.2853789E0,1.0279706E-1,3.9567582E-2,-3.2259804E-1,-4.5497373E-1,3.2896518E2,1.1098124E1,3.1160847E1,7.430236E-1,1.7157046E0,1.8166282E0,1.8166282E0,9.3787515E-1,8.0134654E-1,8.90701E-1,-1.4772636E-1,1.0909728E0,3.4934304E0,4.045816E1,-1.3022676E2,-8.601697E0,5.688129E1,-5.3641552E1,3.9381578E0,6.5567665E1,-3.8965836E1,1.7906523E1,-3.0458797E1,1.7412049E0,-8.733981E1,-3.667577E1,-1.7030975E1,1.5094955E1,9.789138E0,8.001109E1,3.393405E2,2.939145E1,9.689486E0,-4.4230347E1,-1.4294687E1,-7.4630295E1,-3.1279917E0,2.190945E1,-2.9393656E1,-2.1886115E-1,-2.525756E1,1.6038141E2,-2.9721806E0,5.445644E0,-2.7123413E0,-1.3177873E1,-9.811185E0,-3.2351612E1,-1.8066805E1,-8.291115E0,7.0687354E-1,2.06573E1,-1.6652966E1,-5.2346325E0,7.194614E1,-2.4541628E1,-2.9154135E1,-7.8916264E0,-2.654919E0,4.4785126E1,-2.7610607E1,-8.6757934E-1],"split_indices":[3,2,1,2,2,1,1,1,3,1,1,2,4,4,4,1,1,1,1,1,3,1,0,2,2,1,3,3,3,2,1,1,1,0,2,3,2,1,1,0,0,1,0,2,1,2,3,2,3,1,5,0,0,0,2,1,1,1,2,0,0,2,2,0,0,0,0,0,0,0,0,0,0,0,0,0,0,0,0,0,0,0,0,0,0,0,0,0,0,0,0,0,0,0,0,0,0,0,0,0,0,0,0,0,0,0,0,0,0,0,0,0,0],"split_type":[0,0,0,0,0,0,0,0,0,0,0,0,0,0,0,0,0,0,0,0,0,0,0,0,0,0,0,0,0,0,0,0,0,0,0,0,0,0,0,0,0,0,0,0,0,0,0,0,0,0,0,0,0,0,0,0,0,0,0,0,0,0,0,0,0,0,0,0,0,0,0,0,0,0,0,0,0,0,0,0,0,0,0,0,0,0,0,0,0,0,0,0,0,0,0,0,0,0,0,0,0,0,0,0,0,0,0,0,0,0,0,0,0],"sum_hessian":[3.148E3,4.3E2,2.718E3,2.1E2,2.2E2,2.505E3,2.13E2,1.29E2,8.1E1,1.4E1,2.06E2,2.487E3,1.8E1,1.49E2,6.4E1,1.06E2,2.3E1,6.4E1,1.7E1,6E0,8E0,1.16E2,9E1,1.5E3,9.87E2,3E0,1.5E1,8.5E1,6.4E1,1.9E1,4.5E1,9.6E1,1E1,4E0,1.9E1,3.6E1,2.8E1,4E0,1.3E1,2E0,4E0,4E0,4E0,1.09E2,7E0,7E1,2E1,1.411E3,8.9E1,2.5E1,9.62E2,2E0,1E0,5E0,1E1,6.1E1,2.4E1,4E0,6E1,1.1E1,8E0,4E0,4.1E1,7.9E1,1.7E1,3E0,7E0,1.2E1,7E0,3.3E1,3E0,1.9E1,9E0,2E0,2E0,5E0,8E0,2E0,2E0,8.6E1,2.3E1,2E0,5E0,6.1E1,9E0,1.2E1,8E0,1.367E3,4.4E1,4.5E1,4.4E1,1.5E1,1E1,5.01E2,4.61E2,4E0,6E0,9E0,5.2E1,1.1E1,1.3E1,3E0,1E0,2.1E1,3.9E1,1E1,1E0,7E0,1E0,1E0,3E0,1.2E1,2.9E1],"tree_param":{"num_deleted":"0","num_feature":"6","num_nodes":"113","size_leaf_vector":"1"}},{"base_weights":[2.6137798E0,3.744256E1,-2.908036E0,-5.7362E0,5.9127148E1,8.020204E0,-9.411998E0,2.6042242E1,-9.590292E1,9.054361E1,-5.270689E-1,4.681073E0,1.5852362E2,-1.4414032E0,-1.9903933E1,7.867625E1,-4.847649E0,-1.512531E2,-2.5999783E1,2.0711752E2,5.3485485E1,1.4632029E1,-4.9140545E1,-7.592781E1,7.528129E0,4.9606595E2,-3.20672E1,-7.518181E0,9.979078E1,-3.877916E1,-1.172878E1,5.1338596E0,1.3861394E2,2.8778975E1,-6.1567795E1,-3.779821E1,-2.1816393E2,1.0564233E1,-4.698447E1,1.2227579E2,4.0624298E2,-2.0836893E2,7.2485916E1,4.930864E0,1.12788086E2,-1.1139987E2,-1.695142E1,-9.255513E1,-5.9530647E1,-9.32425E0,2.3478302E1,2.6966223E2,2.1198422E2,-1.0427024E2,1.9255873E2,-8.868771E0,9.496527E1,2.281843E2,7.280425E0,-6.2393448E1,-1.6265053E1,6.986735E0,-2.3440638E1,-1.3815212E1,8.8040535E1,1.3731586E2,5.3504043E0,3.0671544E0,4.3377243E1,-6.115763E1,-5.394429E0,-2.3610542E1,2.1072876E1,-7.218428E1,-1.8937414E1,-7.533005E0,4.848937E1,1.1827607E0,1.9184729E2,9.559162E1,-9.06989E1,2.6073376E2,1.6191568E1,7.462654E0,-7.4470444E0,-3.8123375E1,-2.4803582E-1,4.6882806E0,-1.2395849E1,-3.5185673E1,-1.4256038E1,-3.946791E0,1.6896294E1,1.8312326E2,5.955518E0,8.73005E1,2.991753E1,-4.2182735E1,1.5484827E1,-2.8172865E1,9.5805405E1,-3.9079552E0,6.2968755E0,5.716263E1,-9.710568E0,9.4263726E-1,1.3026334E2,3.8460743E1,-1.0962819E1,-3.461308E1,-8.858994E0,4.863506E1,-6.747184E0,-1.7874466E0,1.5313203E2,-1.4889629E1,-4.5781174E0],"categories":[],"categories_nodes":[],"categories_segments":[],"categories_sizes":[],"default_left":[0,0,0,0,0,0,0,0,0,0,0,0,0,0,0,0,0,0,0,0,0,0,0,0,0,0,0,0,0,0,0,0,0,0,0,0,0,0,0,0,0,0,0,0,0,0,0,0,0,0,0,0,0,0,0,0,0,0,0,0,0,0,0,0,0,0,0,0,0,0,0,0,0,0,0,0,0,0,0,0,0,0,0,0,0,0,0,0,0,0,0,0,0,0,0,0,0,0,0,0,0,0,0,0,0,0,0,0,0,0,0,0,0,0,0,0,0],"id":9,"left_children":[1,3,5,7,9,11,13,15,17,19,21,23,25,27,29,31,33,35,37,39,41,43,45,47,49,51,53,55,57,59,61,63,65,67,69,71,73,75,-1,77,-1,79,81,83,-1,85,87,-1,89,91,93,-1,95,97,99,101,103,105,107,109,111,113,115,-1,-1,-1,-1,-1,-1,-1,-1,-1,-1,-1,-1,-1,-1,-1,-1,-1,-1,-1,-1,-1,-1,-1,-1,-1,-1,-1,-1,-1,-1,-1,-1,-1,-1,-1,-1,-1,-1,-1,-1,-1,-1,-1,-1,-1,-1,-1,-1,-1,-1,-1,-1,-1,-1],"loss_changes":[6.057185E5,4.0389044E5,1.9333344E5,4.1797444E5,5.379213E5,5.0934675E5,1.4255528E5,1.7597414E5,1.4309516E5,8.0108425E5,7.4412664E4,2.2869262E5,1.4312219E6,5.9746075E5,1.1311575E5,1.756068E5,1.3337603E5,1.5117234E5,8.761916E4,4.2136255E6,7.315539E5,2.6805466E5,4.620937E4,1.1130311E5,2.5853412E5,7.248965E5,2.6335828E5,1.2762858E5,6.516138E5,1.170125E5,1.1304838E5,2.9392175E5,8.39746E5,9.307347E4,1.5758492E5,4.530168E4,3.0060125E4,8.489659E4,0E0,2.62924E6,0E0,5.915141E5,1.9441758E6,4.571893E4,0E0,1.3763492E4,1.414182E4,0E0,1.7317586E4,1.1845891E5,1.03938894E6,0E0,2.4202406E4,7.5234484E4,1.7527839E5,1.1262327E5,1.5220953E5,1.0650241E6,1.7955797E5,1.8464478E5,1.3135672E5,1.2999538E6,6.716067E4,0E0,0E0,0E0,0E0,0E0,0E0,0E0,0E0,0E0,0E0,0E0,0E0,0E0,0E0,0E0,0E0,0E0,0E0,0E0,0E0,0E0,0E0,0E0,0E0,0E0,0E0,0E0,0E0,0E0,0E0,0E0,0E0,0E0,0E0,0E0,0E0,0E0,0E0,0E0,0E0,0E0,0E0,0E0,0E0,0E0,0E0,0E0,0E0,0E0,0E0,0E0,0E0,0E0,0E0],"parents":[2147483647,0,0,1,1,2,2,3,3,4,4,5,5,6,6,7,7,8,8,9,9,10,10,11,11,12,12,13,13,14,14,15,15,16,16,17,17,18,18,19,19,20,20,21,21,22,22,23,23,24,24,25,25,26,26,27,27,28,28,29,29,30,30,31,31,32,32,33,33,34,34,35,35,36,36,37,37,39,39,41,41,42,42,43,43,45,45,46,46,48,48,49,49,50,50,52,52,53,53,54,54,55,55,56,56,57,57,58,58,59,59,60,60,61,61,62,62],"right_children":[2,4,6,8,10,12,14,16,18,20,22,24,26,28,30,32,34,36,38,40,42,44,46,48,50,52,54,56,58,60,62,64,66,68,70,72,74,76,-1,78,-1,80,82,84,-1,86,88,-1,90,92,94,-1,96,98,100,102,104,106,108,110,112,114,116,-1,-1,-1,-1,-1,-1,-1,-1,-1,-1,-1,-1,-1,-1,-1,-1,-1,-1,-1,-1,-1,-1,-1,-1,-1,-1,-1,-1,-1,-1,-1,-1,-1,-1,-1,-1,-1,-1,-1,-1,-1,-1,-1,-1,-1,-1,-1,-1,-1,-1,-1,-1,-1,-1],"split_conditions":[-1.2096678E0,-4.496156E-1,-3.5275427E-1,-6.2832445E-1,4.006245E-1,4.6075875E-1,-2.7268323E-1,-5.078605E-1,6.455978E-1,-6.56959E-1,6.455978E-1,-1.6230309E0,-6.3150924E-1,-3.2259804E-1,6.02161E-2,-8.5171056E-1,-9.41065E-1,-6.3056564E-1,1.6685249E0,5.7600796E-1,-5.282745E-1,6.3167983E-1,7.5694156E-1,-8.8273287E-1,-5.069302E-1,-6.234545E-1,-4.1814125E-1,1.2440704E0,3.9567582E-2,-2.7480495E-1,3.2548454E-1,1.364816E-1,-2.0339823E-1,9.7108483E-1,-2.0339823E-1,-6.897797E-1,3.3244857E-1,9.3416154E-1,-4.698447E1,-6.8089074E-1,4.0624298E2,-6.209373E-1,-5.121376E-1,-8.292677E-1,1.12788086E2,-3.622564E-1,6.226377E-1,-9.255513E1,-2.2632575E0,1.6476915E0,-1.0995424E0,2.6966223E2,5.342541E-1,6.353563E-1,-8.919201E-1,2.097387E0,1.3832501E0,1.8630487E-1,-8.8333887E-1,3.2548454E-1,-2.18699E-1,3.115666E-1,7.1518767E-1,-1.3815212E1,8.8040535E1,1.3731586E2,5.3504043E0,3.0671544E0,4.3377243E1,-6.115763E1,-5.394429E0,-2.3610542E1,2.1072876E1,-7.218428E1,-1.8937414E1,-7.533005E0,4.848937E1,1.1827607E0,1.9184729E2,9.559162E1,-9.06989E1,2.6073376E2,1.6191568E1,7.462654E0,-7.4470444E0,-3.8123375E1,-2.4803582E-1,4.6882806E0,-1.2395849E1,-3.5185673E1,-1.4256038E1,-3.946791E0,1.6896294E1,1.8312326E2,5.955518E0,8.73005E1,2.991753E1,-4.2182735E1,1.5484827E1,-2.8172865E1,9.5805405E1,-3.9079552E0,6.2968755E0,5.716263E1,-9.710568E0,9.4263726E-1,1.3026334E2,3.8460743E1,-1.0962819E1,-3.461308E1,-8.858994E0,4.863506E1,-6.747184E0,-1.7874466E0,1.5313203E2,-1.4889629E1,-4.5781174E0],"split_indices":[3,0,3,0,4,5,1,4,2,1,2,2,3,1,3,0,0,1,1,2,1,2,2,3,5,1,3,2,3,4,2,1,2,1,2,1,1,1,0,1,0,2,1,1,0,1,0,0,2,2,3,0,2,1,0,5,2,2,4,2,4,2,2,0,0,0,0,0,0,0,0,0,0,0,0,0,0,0,0,0,0,0,0,0,0,0,0,0,0,0,0,0,0,0,0,0,0,0,0,0,0,0,0,0,0,0,0,0,0,0,0,0,0,0,0,0,0],"split_type":[0,0,0,0,0,0,0,0,0,0,0,0,0,0,0,0,0,0,0,0,0,0,0,0,0,0,0,0,0,0,0,0,0,0,0,0,0,0,0,0,0,0,0,0,0,0,0,0,0,0,0,0,0,0,0,0,0,0,0,0,0,0,0,0,0,0,0,0,0,0,0,0,0,0,0,0,0,0,0,0,0,0,0,0,0,0,0,0,0,0,0,0,0,0,0,0,0,0,0,0,0,0,0,0,0,0,0,0,0,0,0,0,0,0,0,0,0],"sum_hessian":[3.148E3,4.3E2,2.718E3,1.44E2,2.86E2,1.014E3,1.704E3,1.07E2,3.7E1,1.87E2,9.9E1,9.93E2,2.1E1,9.69E2,7.35E2,3.9E1,6.8E1,2E1,1.7E1,4.4E1,1.43E2,7.6E1,2.3E1,3.3E1,9.6E2,7E0,1.4E1,9.15E2,5.4E1,2.21E2,5.14E2,1.8E1,2.1E1,4.3E1,2.5E1,8E0,1.2E1,1.4E1,3E0,4.2E1,2E0,9E0,1.34E2,7.5E1,1E0,7E0,1.6E1,1E0,3.2E1,4.67E2,4.93E2,2E0,5E0,1.1E1,3E0,9.04E2,1.1E1,2.2E1,3.2E1,1.07E2,1.14E2,1.98E2,3.16E2,1.6E1,2E0,5E0,1.6E1,3.8E1,5E0,5E0,2E1,6E0,2E0,1E1,2E0,1.2E1,2E0,3.5E1,7E0,1E0,8E0,2E0,1.32E2,4.5E1,3E1,6E0,1E0,7E0,9E0,4E0,2.8E1,4.42E2,2.5E1,2E0,4.91E2,2E0,3E0,9E0,2E0,1E0,2E0,7.94E2,1.1E2,6E0,5E0,1.1E1,1.1E1,8E0,2.4E1,4E1,6.7E1,3E0,1.11E2,1.94E2,4E0,7.4E1,2.42E2],"tree_param":{"num_deleted":"0","num_feature":"6","num_nodes":"117","size_leaf_vector":"1"}},{"base_weights":[2.4239922E0,2.1200499E1,-4.011956E0,1.8246252E1,4.1107428E2,-1.8709118E0,-2.697601E1,7.123258E1,3.4892743E0,2.157298E2,2.3186083E1,-3.0447142E0,1.7718375E2,-4.2234238E1,8.48511E0,1.1088825E2,-5.9613233E0,6.712879E1,2.424676E0,-8.220347E-1,-2.351283E1,6.728896E2,-1.9180532E1,-5.7906406E1,-1.7691946E1,4.1060684E1,-2.4364178E1,4.7694702E1,2.117757E2,-1.6497083E2,3.310144E1,-1.4124753E2,4.0481076E0,-2.4138174E1,1.4781444E0,-4.8229206E1,1.2398139E1,2.6198102E2,1.0762253E1,-3.7826428E0,-3.6901474E1,-7.077408E1,-2.5984612E1,-2.126459E1,1.5624185E1,1.7634375E1,1.115775E2,-4.5799538E1,2.1774923E1,4.477153E1,-1.4126264E1,1.5250449E2,4.2578472E1,-6.7932396E1,2.8476318E1,1.5376764E2,5.380477E-1,-1.7725119E1,-6.9331406E1,2.7974935E0,-9.466621E0,5.885991E1,-8.358778E0,6.639324E1,-2.0189042E-1,-1.9557766E1,1.1422909E1,7.206109E1,-2.3069453E0,-5.767559E0,5.9859467E-1,-4.740426E0,-1.3710311E1,-2.6532225E1,-9.305613E0,-9.9007976E-1,-1.5652398E1,-9.763932E0,-4.6979256E0,2.447274E1,-1.132367E1,3.423692E1,-1.0894836E1,-2.0265411E1,-6.699004E0],"categories":[],"categories_nodes":[],"categories_segments":[],"categories_sizes":[],"default_left":[0,0,0,0,0,0,0,0,0,0,0,0,0,0,0,0,0,0,0,0,0,0,0,0,0,0,0,0,0,0,0,0,0,0,0,0,0,0,0,0,0,0,0,0,0,0,0,0,0,0,0,0,0,0,0,0,0,0,0,0,0,0,0,0,0,0,0,0,0,0,0,0,0,0,0,0,0,0,0,0,0,0,0,0,0],"id":10,"left_children":[1,3,5,7,9,11,13,15,17,-1,-1,19,21,23,25,27,29,-1,31,33,35,37,39,41,43,45,47,49,51,53,55,57,59,61,63,65,67,-1,-1,69,71,73,75,77,79,81,-1,83,-1,-1,-1,-1,-1,-1,-1,-1,-1,-1,-1,-1,-1,-1,-1,-1,-1,-1,-1,-1,-1,-1,-1,-1,-1,-1,-1,-1,-1,-1,-1,-1,-1,-1,-1,-1,-1],"loss_changes":[3.806248E5,9.1853325E5,1.1529545E5,6.24504E5,5.613122E5,4.5178478E5,1.0857316E5,5.3330575E5,1.4625608E5,0E0,0E0,9.7065E4,1.3756514E6,5.2823844E4,6.627556E4,7.230744E5,3.7814178E5,0E0,1.461148E5,1.0332956E5,1.8610406E5,4.7925388E5,2.8619302E3,3.307547E4,6.9977344E3,2.3372016E5,6.774535E4,6.999944E5,8.393039E5,2.1320222E5,7.346112E5,3.80265E4,1.1640107E5,1.4743567E5,8.295889E5,1.8402216E5,3.9539575E5,0E0,0E0,6.629454E2,2.0621582E2,3.9397406E4,1.5274518E4,2.715211E3,2.419805E4,1.6031289E5,0E0,1.1764711E4,0E0,0E0,0E0,0E0,0E0,0E0,0E0,0E0,0E0,0E0,0E0,0E0,0E0,0E0,0E0,0E0,0E0,0E0,0E0,0E0,0E0,0E0,0E0,0E0,0E0,0E0,0E0,0E0,0E0,0E0,0E0,0E0,0E0,0E0,0E0,0E0,0E0],"parents":[2147483647,0,0,1,1,2,2,3,3,4,4,5,5,6,6,7,7,8,8,11,11,12,12,13,13,14,14,15,15,16,16,18,18,19,19,20,20,21,21,22,22,23,23,24,24,25,25,26,26,27,27,28,28,29,29,30,30,31,31,32,32,33,33,34,34,35,35,36,36,39,39,40,40,41,41,42,42,43,43,44,44,45,45,47,47],"right_children":[2,4,6,8,10,12,14,16,18,-1,-1,20,22,24,26,28,30,-1,32,34,36,38,40,42,44,46,48,50,52,54,56,58,60,62,64,66,68,-1,-1,70,72,74,76,78,80,82,-1,84,-1,-1,-1,-1,-1,-1,-1,-1,-1,-1,-1,-1,-1,-1,-1,-1,-1,-1,-1,-1,-1,-1,-1,-1,-1,-1,-1,-1,-1,-1,-1,-1,-1,-1,-1,-1,-1],"split_conditions":[-6.934548E-1,4.5686203E-1,1.6220288E0,-6.5459913E-1,-6.234545E-1,1.5406609E0,2.6900692E0,4.0424383E-1,-1.4281794E0,2.157298E2,2.3186083E1,8.0766505E-1,-9.804453E-1,-5.038111E-2,1.3832501E0,-4.0886965E-2,6.285187E-1,6.712879E1,-1.3168356E0,-1.34316E0,9.93547E-1,1.5748491E0,-3.965227E-1,2.2415197E0,1.0823177E0,1.3554142E0,2.1526451E-1,-4.2926535E-1,-2.9946748E-2,8.543673E-1,6.353563E-1,-1.3446716E0,1.0023941E0,-4.2250094E-1,-1.2984828E0,5.0362283E-1,1.0213829E0,2.6198102E2,1.0762253E1,-1.2984828E0,-3.8716847E-1,3.9567582E-2,2.493145E0,1.8166282E0,1.8558763E0,3.0292168E0,1.115775E2,-1.0432915E-1,2.1774923E1,4.477153E1,-1.4126264E1,1.5250449E2,4.2578472E1,-6.7932396E1,2.8476318E1,1.5376764E2,5.380477E-1,-1.7725119E1,-6.9331406E1,2.7974935E0,-9.466621E0,5.885991E1,-8.358778E0,6.639324E1,-2.0189042E-1,-1.9557766E1,1.1422909E1,7.206109E1,-2.3069453E0,-5.767559E0,5.9859467E-1,-4.740426E0,-1.3710311E1,-2.6532225E1,-9.305613E0,-9.9007976E-1,-1.5652398E1,-9.763932E0,-4.6979256E0,2.447274E1,-1.132367E1,3.423692E1,-1.0894836E1,-2.0265411E1,-6.699004E0],"split_indices":[3,5,1,4,1,1,1,1,2,0,0,1,4,4,2,1,1,0,2,0,2,1,5,1,3,2,5,1,1,2,1,2,0,5,0,5,2,0,0,0,3,3,1,1,1,1,0,4,0,0,0,0,0,0,0,0,0,0,0,0,0,0,0,0,0,0,0,0,0,0,0,0,0,0,0,0,0,0,0,0,0,0,0,0,0],"split_type":[0,0,0,0,0,0,0,0,0,0,0,0,0,0,0,0,0,0,0,0,0,0,0,0,0,0,0,0,0,0,0,0,0,0,0,0,0,0,0,0,0,0,0,0,0,0,0,0,0,0,0,0,0,0,0,0,0,0,0,0,0,0,0,0,0,0,0,0,0,0,0,0,0,0,0,0,0,0,0,0,0,0,0,0,0],"sum_hessian":[3.148E3,8.03E2,2.345E3,7.98E2,5E0,2.146E3,1.99E2,1.73E2,6.25E2,2E0,3E0,2.133E3,1.3E1,1.39E2,6E1,1.14E2,5.9E1,2E0,6.23E2,1.925E3,2.08E2,3E0,1E1,8.4E1,5.5E1,3E1,3E1,7.1E1,4.3E1,1.1E1,4.8E1,6E0,6.17E2,1.72E2,1.753E3,1.23E2,8.5E1,2E0,1E0,6E0,4E0,5.9E1,2.5E1,5E1,5E0,2.9E1,1E0,2.5E1,5E0,3.4E1,3.7E1,7E0,3.6E1,9E0,2E0,2E0,4.6E1,4E0,2E0,5.38E2,7.9E1,2E0,1.7E2,1.6E1,1.737E3,1.03E2,2E1,6E0,7.9E1,1E0,5E0,2E0,2E0,4E1,1.9E1,1.4E1,1.1E1,1.5E1,3.5E1,2E0,3E0,1E1,1.9E1,1.2E1,1.3E1],"tree_param":{"num_deleted":"0","num_feature":"6","num_nodes":"85","size_leaf_vector":"1"}},{"base_weights":[2.0322256E0,2.2385098E1,-1.1947402E0,2.6192703E1,-1.25377335E2,-1.9874416E1,4.6582136E-1,2.1932266E0,5.0068043E1,-1.6242625E2,2.756189E1,-8.5387596E1,-1.7388552E1,3.8059347E0,-1.176759E1,2.5019445E1,-3.953191E1,3.9923303E2,2.3227724E1,1.2069377E1,-6.4201904E1,-1.1565061E1,2.396791E1,-1.3376006E1,-6.796328E1,-4.2462727E-1,2.6108974E1,-3.86344E1,-4.8188376E0,5.2654845E-1,1.0537031E2,-9.577389E0,-1.3385582E2,2.0311289E1,6.4959076E2,-6.9656E1,4.2342472E1,8.22496E0,-2.793741E0,-5.495887E1,-9.344961E0,-4.643765E1,-3.601876E1,2.810363E0,-5.5912487E1,6.8254425E1,-1.6202776E1,6.0577927E1,-5.3733887E1,7.520483E-1,-4.9876045E1,-5.7087135E0,5.1343704E1,4.766378E0,7.595509E1,-3.5772007E1,3.899459E0,-2.0069642E0,-4.4800034E1,7.6452736E1,-3.73409E1,3.9476814E0,3.4683133E2,1.3181194E1,-5.1920643E1,8.56749E1,6.378132E0,-5.316903E0,-2.7067654E1,1.8134012E0,-6.675973E0,-1.6972538E1,2.4559326E0,-3.373396E-1,1.7049618E1,8.607509E0,-2.3591125E1,5.031238E1,-1.1503646E0,-4.3113586E1,-2.788281E0,-2.2582455E0,4.9197186E1,-2.188531E1,-3.9059663E0,-2.3286047E0,3.380051E1,-2.1829681E1,-8.046784E0],"categories":[],"categories_nodes":[],"categories_segments":[],"categories_sizes":[],"default_left":[0,0,0,0,0,0,0,0,0,0,0,0,0,0,0,0,0,0,0,0,0,0,0,0,0,0,0,0,0,0,0,0,0,0,0,0,0,0,0,0,0,0,0,0,0,0,0,0,0,0,0,0,0,0,0,0,0,0,0,0,0,0,0,0,0,0,0,0,0,0,0,0,0,0,0,0,0,0,0,0,0,0,0,0,0,0,0,0,0],"id":11,"left_children":[1,3,5,7,9,11,13,15,17,19,21,-1,23,25,27,29,31,33,35,37,-1,-1,-1,39,41,43,45,47,49,51,53,55,57,59,61,63,65,-1,-1,67,69,-1,71,73,75,77,79,81,83,85,87,-1,-1,-1,-1,-1,-1,-1,-1,-1,-1,-1,-1,-1,-1,-1,-1,-1,-1,-1,-1,-1,-1,-1,-1,-1,-1,-1,-1,-1,-1,-1,-1,-1,-1,-1,-1,-1,-1],"loss_changes":[2.0684686E5,2.4577356E5,8.434924E4,2.411214E5,6.680534E4,1.4115675E5,1.02115516E5,2.0195119E5,1.9681552E6,8.358742E4,1.3459057E4,0E0,4.3939203E4,1.8522875E5,9.9880086E4,2.69564E5,2.1062508E5,1.4097958E6,3.527129E5,1.2397675E3,0E0,0E0,0E0,3.4016625E4,3.8803883E4,2.9651606E5,5.592625E5,1.6804114E5,1.0721817E5,3.569319E5,4.1923138E5,1.4514038E5,3.442903E4,2.6940966E5,2.8860398E6,4.0700228E5,8.349211E5,0E0,0E0,2.2038234E4,3.7680062E4,0E0,1.2276225E4,3.318796E5,1.7721244E5,1.1262548E6,1.369653E5,1.068789E5,7.416122E4,3.639152E5,2.2849328E4,0E0,0E0,0E0,0E0,0E0,0E0,0E0,0E0,0E0,0E0,0E0,0E0,0E0,0E0,0E0,0E0,0E0,0E0,0E0,0E0,0E0,0E0,0E0,0E0,0E0,0E0,0E0,0E0,0E0,0E0,0E0,0E0,0E0,0E0,0E0,0E0,0E0,0E0],"parents":[2147483647,0,0,1,1,2,2,3,3,4,4,5,5,6,6,7,7,8,8,9,9,10,10,12,12,13,13,14,14,15,15,16,16,17,17,18,18,19,19,23,23,24,24,25,25,26,26,27,27,28,28,29,29,30,30,31,31,32,32,33,33,34,34,35,35,36,36,39,39,40,40,42,42,43,43,44,44,45,45,46,46,47,47,48,48,49,49,50,50],"right_children":[2,4,6,8,10,12,14,16,18,20,22,-1,24,26,28,30,32,34,36,38,-1,-1,-1,40,42,44,46,48,50,52,54,56,58,60,62,64,66,-1,-1,68,70,-1,72,74,76,78,80,82,84,86,88,-1,-1,-1,-1,-1,-1,-1,-1,-1,-1,-1,-1,-1,-1,-1,-1,-1,-1,-1,-1,-1,-1,-1,-1,-1,-1,-1,-1,-1,-1,-1,-1,-1,-1,-1,-1,-1,-1],"split_conditions":[-1.2096678E0,2.6900692E0,-1.6230309E0,3.811564E-1,4.0432396E0,-8.8273287E-1,6.695446E-1,-8.546679E-3,4.368283E-1,6.455978E-1,-4.27277E-1,-8.5387596E1,8.101659E-1,1.6424245E-1,5.064181E-1,-2.173162E-1,-1.2853789E0,-6.897797E-1,5.4817206E-1,-8.5171056E-1,-6.4201904E1,-1.1565061E1,2.396791E1,-4.1814125E-1,3.9567582E-2,4.389985E-2,5.8992594E-1,-5.931013E-1,8.0134654E-1,8.492575E-2,-4.679664E-1,4.7125194E-2,-9.41065E-1,-8.449943E-1,-1.2957033E0,-5.121376E-1,-6.56959E-1,8.22496E0,-2.793741E0,-6.1524934E-1,7.622657E-1,-4.643765E1,-5.575396E-1,9.2395717E-1,-1.6164432E-1,-3.596371E-1,1.9706315E-1,2.5623469E-2,-7.843409E-2,6.673149E-1,-8.0133784E-1,-5.7087135E0,5.1343704E1,4.766378E0,7.595509E1,-3.5772007E1,3.899459E0,-2.0069642E0,-4.4800034E1,7.6452736E1,-3.73409E1,3.9476814E0,3.4683133E2,1.3181194E1,-5.1920643E1,8.56749E1,6.378132E0,-5.316903E0,-2.7067654E1,1.8134012E0,-6.675973E0,-1.6972538E1,2.4559326E0,-3.373396E-1,1.7049618E1,8.607509E0,-2.3591125E1,5.031238E1,-1.1503646E0,-4.3113586E1,-2.788281E0,-2.2582455E0,4.9197186E1,-2.188531E1,-3.9059663E0,-2.3286047E0,3.380051E1,-2.1829681E1,-8.046784E0],"split_indices":[3,1,2,2,1,3,1,2,2,2,0,0,5,1,2,2,3,1,2,0,0,0,0,3,3,1,2,2,0,1,1,2,0,1,3,1,1,0,0,1,3,0,1,2,2,3,1,5,4,0,4,0,0,0,0,0,0,0,0,0,0,0,0,0,0,0,0,0,0,0,0,0,0,0,0,0,0,0,0,0,0,0,0,0,0,0,0,0,0],"split_type":[0,0,0,0,0,0,0,0,0,0,0,0,0,0,0,0,0,0,0,0,0,0,0,0,0,0,0,0,0,0,0,0,0,0,0,0,0,0,0,0,0,0,0,0,0,0,0,0,0,0,0,0,0,0,0,0,0,0,0,0,0,0,0,0,0,0,0,0,0,0,0,0,0,0,0,0,0,0,0,0,0,0,0,0,0,0,0,0,0],"sum_hessian":[3.148E3,4.3E2,2.718E3,4.2E2,1E1,2.21E2,2.497E3,2.1E2,2.1E2,8E0,2E0,1E0,2.2E2,1.962E3,5.35E2,1.36E2,7.4E1,1.4E1,1.96E2,2E0,6E0,1E0,1E0,2.05E2,1.5E1,1.65E3,3.12E2,1.09E2,4.26E2,1.05E2,3.1E1,5.7E1,1.7E1,6E0,8E0,3.3E1,1.63E2,1E0,1E0,1.7E1,1.88E2,3E0,1.2E1,1.56E3,9E1,1.56E2,1.56E2,1.4E1,9.5E1,3.8E2,4.6E1,9.5E1,1E1,2E1,1.1E1,9E0,4.8E1,2E0,1.5E1,2E0,4E0,4E0,4E0,1.6E1,1.7E1,1.2E1,1.51E2,9E0,8E0,8.6E1,1.02E2,8E0,4E0,1.455E3,1.05E2,1.9E1,7.1E1,6.5E1,9.1E1,7E0,1.49E2,9E0,5E0,6.4E1,3.1E1,3.54E2,2.6E1,2.2E1,2.4E1],"tree_param":{"num_deleted":"0","num_feature":"6","num_nodes":"89","size_leaf_vector":"1"}},{"base_weights":[1.5142255E0,7.0019503E0,-6.275966E0,3.537633E1,9.9151313E-1,-1.3811531E0,-1.5635438E1,4.1013653E1,-1.658606E2,-1.6302629E2,1.9632976E0,-4.743587E0,2.3550534E2,-2.2197102E1,3.5008183E0,6.2105076E1,-1.4974273E1,-8.299359E1,-9.4687065E1,-2.6147992E2,-3.1967428E1,-1.5892713E1,8.344389E0,7.396359E0,-1.0242216E1,4.9804436E1,2.3280197E2,-2.7092577E1,-1.9821875E0,6.0251198E1,-1.0571864E1,5.1053097E1,3.6103433E2,1.741053E1,-1.1144803E2,-1.4826628E2,-1.743608E1,-2.444155E1,-1.06298416E2,9.59201E0,-2.5575724E1,-4.409721E1,5.577774E0,2.9377932E1,-2.382058E0,3.3572445E0,7.92836E1,2.216157E1,-1.2546454E1,-2.7333074E0,5.1991085E1,-2.1441198E1,-5.130376E1,6.852615E1,-9.041006E0,1.4938799E2,2.7191643E1,-4.8418484E0,-4.8845985E1,3.5197866E0,3.3929367E1,2.66399E2,1.1214249E1,1.0475902E1,-6.0955482E1,-1.813447E1,-6.362936E1,-5.1176373E1,-1.21952095E1,1.9553285E0,-8.277986E0,1.7404833E1,-1.5826957E1,-5.8626866E0,1.4662015E1,6.629768E0,6.511373E1,4.0801992E0,-5.392764E0,-3.510489E1,1.4382137E0,-5.0154696E0,7.662917E1,3.1001595E1,1.2811879E0,-1.4345265E1,-3.2051337E0,1.1609808E1,-1.0599834E1,-7.434675E0,1.778107E1,-2.5232306E1,-1.2615448E1,5.3762965E0,-7.2697797E0,5.253805E1,3.104068E0,3.4454662E1,2.7169304E0,-3.002493E0,1.000725E1,-1.9077589E1,-1.0368139E0],"categories":[],"categories_nodes":[],"categories_segments":[],"categories_sizes":[],"default_left":[0,0,0,0,0,0,0,0,0,0,0,0,0,0,0,0,0,0,0,0,0,0,0,0,0,0,0,0,0,0,0,0,0,0,0,0,0,0,0,0,0,0,0,0,0,0,0,0,0,0,0,0,0,0,0,0,0,0,0,0,0,0,0,0,0,0,0,0,0,0,0,0,0,0,0,0,0,0,0,0,0,0,0,0,0,0,0,0,0,0,0,0,0,0,0,0,0,0,0,0,0,0,0],"id":12,"left_children":[1,3,5,7,9,11,13,15,17,19,21,23,25,27,29,31,33,-1,35,37,39,41,43,45,47,49,-1,51,53,55,57,59,61,63,65,67,69,-1,-1,-1,-1,71,73,75,77,79,81,83,85,87,-1,89,91,-1,93,95,97,99,101,-1,-1,-1,-1,-1,-1,-1,-1,-1,-1,-1,-1,-1,-1,-1,-1,-1,-1,-1,-1,-1,-1,-1,-1,-1,-1,-1,-1,-1,-1,-1,-1,-1,-1,-1,-1,-1,-1,-1,-1,-1,-1,-1,-1],"loss_changes":[1.3466505E5,3.1512734E5,5.9626754E4,3.7322572E5,2.4354916E5,6.829342E5,5.6205562E4,3.729025E5,4.4769703E4,1.0777011E5,1.730948E5,5.64821E4,1.1658102E6,3.2900516E4,9.247942E4,7.38129E5,2.7375303E5,0E0,2.6388152E4,5.4699312E4,1.9761227E4,2.4247167E5,2.5253334E5,7.638908E4,4.373368E4,6.5357375E4,0E0,3.55695E4,1.0940562E5,6.3714812E4,2.015945E4,5.4027106E5,1.3312314E6,2.6201603E5,1.0010772E5,2.6741094E3,1.1530625E3,0E0,0E0,0E0,0E0,1.5603266E5,2.4892523E5,5.115435E5,1.8517442E5,4.3972133E4,2.4101636E5,5.619972E4,3.522918E4,1.2172821E4,0E0,6.052461E4,1.1638672E4,0E0,2.7057984E4,1.9660516E4,2.7574156E4,1.6516996E4,7.812051E3,0E0,0E0,0E0,0E0,0E0,0E0,0E0,0E0,0E0,0E0,0E0,0E0,0E0,0E0,0E0,0E0,0E0,0E0,0E0,0E0,0E0,0E0,0E0,0E0,0E0,0E0,0E0,0E0,0E0,0E0,0E0,0E0,0E0,0E0,0E0,0E0,0E0,0E0,0E0,0E0,0E0,0E0,0E0,0E0],"parents":[2147483647,0,0,1,1,2,2,3,3,4,4,5,5,6,6,7,7,8,8,9,9,10,10,11,11,12,12,13,13,14,14,15,15,16,16,18,18,19,19,20,20,21,21,22,22,23,23,24,24,25,25,27,27,28,28,29,29,30,30,31,31,32,32,33,33,34,34,35,35,36,36,41,41,42,42,43,43,44,44,45,45,46,46,47,47,48,48,49,49,51,51,52,52,54,54,55,55,56,56,57,57,58,58],"right_children":[2,4,6,8,10,12,14,16,18,20,22,24,26,28,30,32,34,-1,36,38,40,42,44,46,48,50,-1,52,54,56,58,60,62,64,66,68,70,-1,-1,-1,-1,72,74,76,78,80,82,84,86,88,-1,90,92,-1,94,96,98,100,102,-1,-1,-1,-1,-1,-1,-1,-1,-1,-1,-1,-1,-1,-1,-1,-1,-1,-1,-1,-1,-1,-1,-1,-1,-1,-1,-1,-1,-1,-1,-1,-1,-1,-1,-1,-1,-1,-1,-1,-1,-1,-1,-1,-1],"split_conditions":[1.39516E-1,-8.8273287E-1,3.3940253E-1,1.2034415E0,-8.311116E-1,3.115666E-1,1.1327267E0,6.353563E-1,-8.210625E-1,5.8258906E-2,-8.5171056E-1,-8.6550725E-1,-1.8756612E-1,7.4339116E-1,5.3894556E-1,5.258172E-1,6.4497626E-1,-8.299359E1,1.2481188E0,-7.4001753E-1,7.012697E-1,2.1526451E-1,-3.5275427E-1,-8.7439615E-1,-1.2096678E0,2.2456474E0,2.3280197E2,2.6475585E-1,7.7074176E-1,-5.8486485E-1,5.7796043E-1,6.226377E-1,6.052707E-1,1.2719064E0,8.961212E-1,2.8595257E-1,-9.2713255E-1,-2.444155E1,-1.06298416E2,9.59201E0,-2.5575724E1,-1.4325144E0,-1.34316E0,4.6075875E-1,3.9925158E-1,-1.6559005E0,7.966799E-1,-8.292677E-1,-8.3815664E-1,3.2548454E-1,5.1991085E1,2.2031112E-1,5.342541E-1,6.852615E1,7.291056E-1,6.226377E-1,-1.0974352E0,2.2456474E0,7.119921E-1,3.5197866E0,3.3929367E1,2.66399E2,1.1214249E1,1.0475902E1,-6.0955482E1,-1.813447E1,-6.362936E1,-5.1176373E1,-1.21952095E1,1.9553285E0,-8.277986E0,1.7404833E1,-1.5826957E1,-5.8626866E0,1.4662015E1,6.629768E0,6.511373E1,4.0801992E0,-5.392764E0,-3.510489E1,1.4382137E0,-5.0154696E0,7.662917E1,3.1001595E1,1.2811879E0,-1.4345265E1,-3.2051337E0,1.1609808E1,-1.0599834E1,-7.434675E0,1.778107E1,-2.5232306E1,-1.2615448E1,5.3762965E0,-7.2697797E0,5.253805E1,3.104068E0,3.4454662E1,2.7169304E0,-3.002493E0,1.000725E1,-1.9077589E1,-1.0368139E0],"split_indices":[4,3,2,0,3,2,2,1,1,1,0,1,3,1,1,1,0,0,0,0,2,5,3,1,3,4,0,1,1,5,0,0,1,2,2,1,2,0,0,0,0,0,0,5,0,0,3,1,1,2,0,1,2,0,2,0,0,4,0,0,0,0,0,0,0,0,0,0,0,0,0,0,0,0,0,0,0,0,0,0,0,0,0,0,0,0,0,0,0,0,0,0,0,0,0,0,0,0,0,0,0,0,0],"split_type":[0,0,0,0,0,0,0,0,0,0,0,0,0,0,0,0,0,0,0,0,0,0,0,0,0,0,0,0,0,0,0,0,0,0,0,0,0,0,0,0,0,0,0,0,0,0,0,0,0,0,0,0,0,0,0,0,0,0,0,0,0,0,0,0,0,0,0,0,0,0,0,0,0,0,0,0,0,0,0,0,0,0,0,0,0,0,0,0,0,0,0,0,0,0,0,0,0,0,0,0,0,0,0],"sum_hessian":[3.148E3,1.847E3,1.301E3,3.22E2,1.525E3,8.55E2,4.46E2,3.14E2,8E0,8E0,1.517E3,8.44E2,1.1E1,3.32E2,1.14E2,2.28E2,8.6E1,2E0,6E0,4E0,4E0,3.99E2,1.118E3,2.63E2,5.81E2,9E0,2E0,2.67E2,6.5E1,2.2E1,9.2E1,2.21E2,7E0,6.5E1,2.1E1,3E0,3E0,2E0,2E0,2E0,2E0,1.72E2,2.27E2,3.77E2,7.41E2,2.5E2,1.3E1,3.8E1,5.43E2,7E0,2E0,2.18E2,4.9E1,1E0,6.4E1,5E0,1.7E1,8.1E1,1.1E1,1.36E2,8.5E1,2E0,5E0,6.1E1,4E0,1.5E1,6E0,2E0,1E0,1E0,2E0,1.3E1,1.59E2,1.44E2,8.3E1,3.64E2,1.3E1,3.66E2,3.75E2,2E0,2.48E2,9E0,4E0,6E0,3.2E1,2.6E1,5.17E2,3E0,4E0,2.1E2,8E0,9E0,4E1,2.3E1,4.1E1,4E0,1E0,2E0,1.5E1,7.2E1,9E0,8E0,3E0],"tree_param":{"num_deleted":"0","num_feature":"6","num_nodes":"103","size_leaf_vector":"1"}},{"base_weights":[1.1938214E0,2.792089E0,-1.6878756E1,1.5807614E0,1.4174078E2,-3.273987E1,2.696843E-1,3.8120668E0,-1.3412822E1,5.2758777E2,6.514403E1,-4.9541782E1,-9.468155E0,2.1566826E1,-1.3932006E1,2.6652474E0,6.1098648E1,-2.6595911E1,1.4493297E1,2.0511168E2,8.885175E0,-1.9306702E1,1.3712852E2,3.578625E1,-5.7256634E1,-1.3480663E1,2.0175165E1,5.570316E1,1.086062E1,-4.3451267E1,-3.980864E-2,-2.44909E0,1.566896E1,2.0813306E2,-3.896091E1,-6.389393E1,-1.8005131E0,2.9248175E1,-5.2562443E1,-3.7506535E1,1.251851E1,7.776834E1,4.367543E1,-2.2822298E1,3.6461525E1,-5.8942413E1,-4.601265E1,-4.8157047E1,-5.6492615E0,3.4232185E1,-1.2010508E1,-1.05740585E2,8.594002E0,1.3534416E2,-1.7322021E1,-3.7461945E-1,-2.2996576E1,2.111404E1,1.2204144E0,4.7218146E0,1.3245963E2,-2.4601862E1,1.6599089E1,2.957963E1,-2.0962292E1,4.711206E0,-7.722168E0,5.421316E0,1.1426772E2,5.317569E-1,-2.7094593E1,-1.945191E1,-6.130273E0,2.3451616E1,2.2029154E0,-1.3293349E1,1.8822E0,4.2931843E0,-1.7054024E1,-1.6289696E1,1.0680519E0,1.0105322E1,-3.0592008E0,1.692716E1,-8.316733E0,1.4892433E1,-6.8022065E0,-3.0524132E0,-3.7754078E1,1.6550352E1,-1.8809725E1,4.7295766E0,7.49004E1,2.8412912E0,-1.4459732E1],"categories":[],"categories_nodes":[],"categories_segments":[],"categories_sizes":[],"default_left":[0,0,0,0,0,0,0,0,0,0,0,0,0,0,0,0,0,0,0,0,0,0,0,0,0,0,0,0,0,0,0,0,0,0,0,0,0,0,0,0,0,0,0,0,0,0,0,0,0,0,0,0,0,0,0,0,0,0,0,0,0,0,0,0,0,0,0,0,0,0,0,0,0,0,0,0,0,0,0,0,0,0,0,0,0,0,0,0,0,0,0,0,0,0,0],"id":13,"left_children":[1,3,5,7,9,11,13,15,17,19,21,23,25,27,29,31,33,35,37,-1,-1,39,41,43,45,47,-1,-1,49,51,53,55,57,59,61,63,65,67,69,71,-1,-1,73,75,-1,-1,77,79,81,83,85,87,89,91,93,-1,-1,-1,-1,-1,-1,-1,-1,-1,-1,-1,-1,-1,-1,-1,-1,-1,-1,-1,-1,-1,-1,-1,-1,-1,-1,-1,-1,-1,-1,-1,-1,-1,-1,-1,-1,-1,-1,-1,-1],"loss_changes":[9.10054E4,4.868719E5,6.963911E4,9.6067734E4,7.044966E5,5.153517E4,3.7804938E4,1.6401488E5,1.372401E5,2.9071875E5,1.3638866E5,5.273758E4,1.8453145E4,8.583341E4,3.0754824E4,1.6304303E5,7.2900675E5,2.3386419E5,1.20265266E5,0E0,0E0,1.3784193E4,1.25604734E5,3.795445E4,1.0210061E5,1.4664007E4,0E0,0E0,2.6068777E4,7.871347E4,1.2401064E5,1.5667453E5,4.389258E5,8.911405E5,1.263012E5,1.0503809E5,6.45203E4,3.822235E5,4.528871E4,2.8748096E3,0E0,0E0,9.452733E3,3.4042405E3,0E0,0E0,4.460122E4,3.36975E3,8.572542E3,3.4561258E4,1.756123E4,1.9855836E4,4.9944465E4,7.808823E4,3.9339094E4,0E0,0E0,0E0,0E0,0E0,0E0,0E0,0E0,0E0,0E0,0E0,0E0,0E0,0E0,0E0,0E0,0E0,0E0,0E0,0E0,0E0,0E0,0E0,0E0,0E0,0E0,0E0,0E0,0E0,0E0,0E0,0E0,0E0,0E0,0E0,0E0,0E0,0E0,0E0,0E0],"parents":[2147483647,0,0,1,1,2,2,3,3,4,4,5,5,6,6,7,7,8,8,9,9,10,10,11,11,12,12,13,13,14,14,15,15,16,16,17,17,18,18,21,21,22,22,23,23,24,24,25,25,28,28,29,29,30,30,31,31,32,32,33,33,34,34,35,35,36,36,37,37,38,38,39,39,42,42,43,43,46,46,47,47,48,48,49,49,50,50,51,51,52,52,53,53,54,54],"right_children":[2,4,6,8,10,12,14,16,18,20,22,24,26,28,30,32,34,36,38,-1,-1,40,42,44,46,48,-1,-1,50,52,54,56,58,60,62,64,66,68,70,72,-1,-1,74,76,-1,-1,78,80,82,84,86,88,90,92,94,-1,-1,-1,-1,-1,-1,-1,-1,-1,-1,-1,-1,-1,-1,-1,-1,-1,-1,-1,-1,-1,-1,-1,-1,-1,-1,-1,-1,-1,-1,-1,-1,-1,-1,-1,-1,-1,-1,-1,-1],"split_conditions":[1.6220288E0,1.5406609E0,2.2415197E0,6.4492905E-1,-9.804453E-1,-5.038111E-2,-7.4001753E-1,5.8886033E-1,1.1242481E0,1.5748491E0,1.5748491E0,4.5352986E-1,1.0823177E0,-1.2853789E0,9.100392E-1,3.950744E-1,-4.523759E-1,-4.1814125E-1,6.896535E-1,2.0511168E2,8.885175E0,8.5594594E-1,-1.2647305E0,4.2291033E-1,5.203361E-1,-5.8486485E-1,2.0175165E1,5.570316E1,-3.596371E-1,5.7796043E-1,9.7962904E-1,4.3091068E-1,4.9250016E-1,-5.6278336E-1,6.353563E-1,-8.714607E-1,8.4044933E-1,6.4497626E-1,6.455978E-1,1.5846893E-1,1.251851E1,7.776834E1,-9.481199E-1,-1.1421125E0,3.6461525E1,-5.8942413E1,8.822033E-1,1.9598086E0,-1.0995424E0,1.5224298E0,-1.5888847E0,2.493145E0,8.6836237E-1,9.517931E-1,4.4392878E-1,-3.7461945E-1,-2.2996576E1,2.111404E1,1.2204144E0,4.7218146E0,1.3245963E2,-2.4601862E1,1.6599089E1,2.957963E1,-2.0962292E1,4.711206E0,-7.722168E0,5.421316E0,1.1426772E2,5.317569E-1,-2.7094593E1,-1.945191E1,-6.130273E0,2.3451616E1,2.2029154E0,-1.3293349E1,1.8822E0,4.2931843E0,-1.7054024E1,-1.6289696E1,1.0680519E0,1.0105322E1,-3.0592008E0,1.692716E1,-8.316733E0,1.4892433E1,-6.8022065E0,-3.0524132E0,-3.7754078E1,1.6550352E1,-1.8809725E1,4.7295766E0,7.49004E1,2.8412912E0,-1.4459732E1],"split_indices":[1,1,1,1,4,4,0,1,1,1,1,2,3,3,2,2,5,3,0,0,0,4,3,2,2,5,0,0,3,0,2,1,2,5,1,2,2,0,2,2,0,0,3,0,0,0,2,1,3,2,0,1,0,2,0,0,0,0,0,0,0,0,0,0,0,0,0,0,0,0,0,0,0,0,0,0,0,0,0,0,0,0,0,0,0,0,0,0,0,0,0,0,0,0,0],"split_type":[0,0,0,0,0,0,0,0,0,0,0,0,0,0,0,0,0,0,0,0,0,0,0,0,0,0,0,0,0,0,0,0,0,0,0,0,0,0,0,0,0,0,0,0,0,0,0,0,0,0,0,0,0,0,0,0,0,0,0,0,0,0,0,0,0,0,0,0,0,0,0,0,0,0,0,0,0,0,0,0,0,0,0,0,0,0,0,0,0,0,0,0,0,0,0],"sum_hessian":[3.148E3,2.893E3,2.55E2,2.869E3,2.4E1,1.32E2,1.23E2,2.498E3,3.71E2,3E0,2.1E1,7.6E1,5.6E1,4.9E1,7.4E1,2.45E3,4.8E1,2.52E2,1.19E2,2E0,1E0,1E1,1.1E1,6E0,7E1,5.4E1,2E0,2E0,4.7E1,2.3E1,5.1E1,1.759E3,6.91E2,1.9E1,2.9E1,1E2,1.52E2,9.8E1,2.1E1,8E0,2E0,4E0,7E0,4E0,2E0,4E0,6.6E1,9E0,4.5E1,2.3E1,2.4E1,1E1,1.3E1,5E0,4.6E1,1.732E3,2.7E1,1.2E2,5.71E2,1.1E1,8E0,2E1,9E0,3E0,9.7E1,8.8E1,6.4E1,9.6E1,2E0,9E0,1.2E1,2E0,6E0,3E0,4E0,2E0,2E0,1E1,5.6E1,8E0,1E0,4E0,4.1E1,1.7E1,6E0,3E0,2.1E1,2E0,8E0,8E0,5E0,3E0,2E0,2.5E1,2.1E1],"tree_param":{"num_deleted":"0","num_feature":"6","num_nodes":"95","size_leaf_vector":"1"}},{"base_weights":[1.0242835E0,3.8282535E0,-7.555161E0,-3.0514255E0,1.2839051E1,-4.1066395E1,-1.8998026E0,2.2339442E0,-1.921674E1,2.2398573E1,-2.6003788E0,-1.1744479E2,-2.3185823E1,-2.810276E0,9.03982E1,-6.8442097E0,1.5723635E1,-3.1562645E1,3.399931E1,7.113838E1,1.20509205E1,1.1923533E1,-1.279347E1,-1.5539661E1,-1.7896028E2,5.133011E1,-2.940441E1,-5.281022E-1,-1.170539E2,-1.0990328E1,4.655126E1,1.5981152E2,7.513179E0,-8.926885E1,-2.287078E1,9.293207E1,-3.8298817E1,1.5564124E2,-3.2830698E0,3.3919743E1,-1.1594294E1,4.916785E0,2.3235344E2,-2.6858763E1,-1.5510204E0,2.7882996E0,-2.1174551E1,-3.505748E2,-6.373441E1,2.8454863E1,-3.7820953E1,-6.8581386E0,3.289226E1,-4.603313E1,-1.4350389E2,-6.590698E0,1.2230024E0,8.052744E1,-1.0662202E1,8.737627E1,7.8014274E0,1.5906968E1,7.2617805E-1,-5.9874287E0,-4.0357693E1,-1.9944874E1,-4.0893445E0,1.3757936E2,9.286771E0,-1.6131165E0,-1.8366425E1,2.8128714E1,4.967195E2,-1.964499E1,2.5924978E1,8.3427515E0,9.036159E1,-1.2667137E1,2.4692868E-1,4.9255886E0,-4.4568443E0,3.9532578E0,1.1222347E2,-5.7526097E0,-2.3572947E1,3.2636223E1,-1.5042101E0,1.5306153E0,-2.7588046E-1,-9.751418E0,-1.3652213E0,-1.2203086E2,-1.8869385E1,5.500451E0,-5.1271404E1,6.609324E1,-2.7044518E0,-2.0432608E1,-1.9763073E0,8.631889E0,-3.3377128E0,1.2948892E2,5.0325046E0,-2.9986631E1,6.970066E0,-4.777716E1,-2.6216035E0],"categories":[],"categories_nodes":[],"categories_segments":[],"categories_sizes":[],"default_left":[0,0,0,0,0,0,0,0,0,0,0,0,0,0,0,0,0,0,0,0,0,0,0,0,0,0,0,0,0,0,0,0,0,0,0,0,0,0,0,0,0,0,0,0,0,0,0,0,0,0,0,0,0,0,0,0,0,0,0,0,0,0,0,0,0,0,0,0,0,0,0,0,0,0,0,0,0,0,0,0,0,0,0,0,0,0,0,0,0,0,0,0,0,0,0,0,0,0,0,0,0,0,0,0,0,0,0],"id":14,"left_children":[1,3,5,7,9,11,13,15,17,19,21,23,25,27,-1,29,31,33,35,37,39,41,43,45,47,-1,49,51,53,55,57,59,61,63,65,67,69,71,73,75,77,79,81,83,85,87,89,91,93,95,97,99,101,103,105,-1,-1,-1,-1,-1,-1,-1,-1,-1,-1,-1,-1,-1,-1,-1,-1,-1,-1,-1,-1,-1,-1,-1,-1,-1,-1,-1,-1,-1,-1,-1,-1,-1,-1,-1,-1,-1,-1,-1,-1,-1,-1,-1,-1,-1,-1,-1,-1,-1,-1,-1,-1],"loss_changes":[7.578286E4,1.4720675E5,1.46988E5,1.1513014E5,1.517844E5,1.5023419E5,1.8444022E5,1.2452849E5,2.1919722E5,3.1940022E5,5.8481715E4,1.2886266E5,1.1618416E5,1.730588E5,0E0,1.3511302E5,4.8265744E5,1.333835E5,2.71985E5,6.985706E5,2.7186706E5,2.506106E5,3.6644113E4,9.8852515E2,2.3472394E5,0E0,4.4903945E4,1.3815755E5,1.7814562E4,9.354935E4,8.1095725E5,3.7936025E5,8.9796E4,1.0710247E5,9.419235E4,7.789934E5,2.1555723E4,4.6715975E6,3.4041922E5,4.3750578E5,9.626036E4,3.640452E4,1.5038384E5,3.942215E4,5.0218902E4,3.0429335E1,1.1705347E3,5.5244688E4,8.229195E4,8.825148E4,7.428411E4,8.380008E4,6.611206E5,2.0997416E4,1.7715297E4,0E0,0E0,0E0,0E0,0E0,0E0,0E0,0E0,0E0,0E0,0E0,0E0,0E0,0E0,0E0,0E0,0E0,0E0,0E0,0E0,0E0,0E0,0E0,0E0,0E0,0E0,0E0,0E0,0E0,0E0,0E0,0E0,0E0,0E0,0E0,0E0,0E0,0E0,0E0,0E0,0E0,0E0,0E0,0E0,0E0,0E0,0E0,0E0,0E0,0E0,0E0,0E0],"parents":[2147483647,0,0,1,1,2,2,3,3,4,4,5,5,6,6,7,7,8,8,9,9,10,10,11,11,12,12,13,13,15,15,16,16,17,17,18,18,19,19,20,20,21,21,22,22,23,23,24,24,26,26,27,27,28,28,29,29,30,30,31,31,32,32,33,33,34,34,35,35,36,36,37,37,38,38,39,39,40,40,41,41,42,42,43,43,44,44,45,45,46,46,47,47,48,48,49,49,50,50,51,51,52,52,53,53,54,54],"right_children":[2,4,6,8,10,12,14,16,18,20,22,24,26,28,-1,30,32,34,36,38,40,42,44,46,48,-1,50,52,54,56,58,60,62,64,66,68,70,72,74,76,78,80,82,84,86,88,90,92,94,96,98,100,102,104,106,-1,-1,-1,-1,-1,-1,-1,-1,-1,-1,-1,-1,-1,-1,-1,-1,-1,-1,-1,-1,-1,-1,-1,-1,-1,-1,-1,-1,-1,-1,-1,-1,-1,-1,-1,-1,-1,-1,-1,-1,-1,-1,-1,-1,-1,-1,-1,-1,-1,-1,-1,-1],"split_conditions":[8.4602374E-1,-3.8259977E-1,9.353782E-1,-6.2832445E-1,1.39516E-1,-1.2647305E0,3.7405097E0,4.368283E-1,-1.4642783E-2,-6.5012133E-1,3.3940253E-1,-8.6960983E-1,-1.0941482E0,6.153292E-1,9.03982E1,-6.730017E-1,4.9250016E-1,-1.2853789E0,-3.0082402E-1,3.9925158E-1,-3.3554715E-1,3.115666E-1,-2.4054629E-1,-4.260857E-1,-7.813652E-2,5.133011E1,-2.8690603E-1,7.757992E-2,-6.952498E-1,3.9567582E-2,-4.1814125E-1,2.1757607E-1,5.7600796E-1,-1.2957033E0,-5.970504E-1,-1.0432915E-1,2.2805877E-1,3.7691295E-1,3.950744E-1,-3.3117738E-2,-3.1370908E-1,-7.219166E-1,-1.0995424E0,-3.31487E-1,-3.3345482E-1,8.90701E-1,8.887909E-2,8.90701E-1,-1.2853789E0,-6.3150924E-1,-3.596371E-1,1.0023941E0,9.577168E-1,-1.6926208E0,-1.3380839E-1,-6.590698E0,1.2230024E0,8.052744E1,-1.0662202E1,8.737627E1,7.8014274E0,1.5906968E1,7.2617805E-1,-5.9874287E0,-4.0357693E1,-1.9944874E1,-4.0893445E0,1.3757936E2,9.286771E0,-1.6131165E0,-1.8366425E1,2.8128714E1,4.967195E2,-1.964499E1,2.5924978E1,8.3427515E0,9.036159E1,-1.2667137E1,2.4692868E-1,4.9255886E0,-4.4568443E0,3.9532578E0,1.1222347E2,-5.7526097E0,-2.3572947E1,3.2636223E1,-1.5042101E0,1.5306153E0,-2.7588046E-1,-9.751418E0,-1.3652213E0,-1.2203086E2,-1.8869385E1,5.500451E0,-5.1271404E1,6.609324E1,-2.7044518E0,-2.0432608E1,-1.9763073E0,8.631889E0,-3.3377128E0,1.2948892E2,5.0325046E0,-2.9986631E1,6.970066E0,-4.777716E1,-2.6216035E0],"split_indices":[0,0,0,0,4,3,5,2,5,1,2,1,2,5,0,0,2,3,2,0,3,2,1,2,2,0,2,5,1,3,3,1,2,3,0,4,2,0,2,4,1,1,3,1,0,0,2,0,3,3,3,0,0,2,2,0,0,0,0,0,0,0,0,0,0,0,0,0,0,0,0,0,0,0,0,0,0,0,0,0,0,0,0,0,0,0,0,0,0,0,0,0,0,0,0,0,0,0,0,0,0,0,0,0,0,0,0],"split_type":[0,0,0,0,0,0,0,0,0,0,0,0,0,0,0,0,0,0,0,0,0,0,0,0,0,0,0,0,0,0,0,0,0,0,0,0,0,0,0,0,0,0,0,0,0,0,0,0,0,0,0,0,0,0,0,0,0,0,0,0,0,0,0,0,0,0,0,0,0,0,0,0,0,0,0,0,0,0,0,0,0,0,0,0,0,0,0,0,0,0,0,0,0,0,0,0,0,0,0,0,0,0,0,0,0,0,0],"sum_hessian":[3.148E3,2.373E3,7.75E2,1.346E3,1.027E3,1.11E2,6.64E2,1.015E3,3.31E2,6.34E2,3.93E2,2E1,9.1E1,6.63E2,1E0,6.07E2,4.08E2,2.69E2,6.2E1,1.1E2,5.24E2,1.62E2,2.31E2,8E0,1.2E1,2E0,8.9E1,6.51E2,1.2E1,5.64E2,4.3E1,2.1E1,3.87E2,3.4E1,2.35E2,3.4E1,2.8E1,5.1E1,5.9E1,2.72E2,2.52E2,1.58E2,4E0,1.02E2,1.29E2,2E0,6E0,4E0,8E0,1.1E1,7.8E1,5.48E2,1.03E2,4E0,8E0,3.26E2,2.38E2,1.1E1,3.2E1,1E1,1.1E1,3.8E1,3.49E2,1.4E1,2E1,4E1,1.95E2,4E0,3E1,1.2E1,1.6E1,5E1,1E0,3.5E1,2.4E1,2.67E2,5E0,7.2E1,1.8E2,1E2,5.8E1,2E0,2E0,9E1,1.2E1,3E0,1.26E2,1E0,1E0,3E0,3E0,3E0,1E0,5E0,3E0,1E0,1E1,3.9E1,3.9E1,5.8E1,4.9E2,3E0,1E2,2E0,2E0,7E0,1E0],"tree_param":{"num_deleted":"0","num_feature":"6","num_nodes":"107","size_leaf_vector":"1"}},{"base_weights":[1.0413089E0,-2.5297846E1,2.2752004E0,-4.4533295E1,-2.0618793E1,1.162787E1,-1.2748845E0,-1.3995604E1,-1.132602E2,8.818206E0,2.1950755E2,-7.81449E1,-2.1753531E-2,-2.5398647E1,2.239999E2,-4.283404E1,-1.9880807E0,3.724771E1,1.1910813E0,1.4583388E2,1.0624939E2,-1.16159325E2,-1.28261595E1,1.8731749E2,-8.0961865E-1,3.9815437E1,-2.9078579E1,-5.0739055E0,2.755651E2,2.4920704E1,1.5664894E2,-1.2788264E2,2.3974016E0,4.371935E1,2.0464386E1,-1.6192955E2,-3.2054596E1,-3.7138824E1,5.7240208E1,-1.4934286E2,3.8053815E2,-2.5607371E0,1.1276732E1,-3.1170418E1,-6.874932E0,3.1150146E1,1.066324E2,1.2318496E0,3.202489E1,1.151967E2,1.4660954E1,-7.2881975E0,-4.312247E1,5.216763E1,4.765531E-1,-3.179828E0,1.0305639E1,-5.05354E1,-1.1571989E1,-1.6680824E1,-6.286579E-1,6.0308867E0,-1.346199E1,2.6348283E0,2.1139532E1,-2.1522996E0,-5.8302284E1,1.3624959E2,4.665679E1,-4.7084885E0,3.346089E-1,2.5830072E1,-1.9380244E0],"categories":[],"categories_nodes":[],"categories_segments":[],"categories_sizes":[],"default_left":[0,0,0,0,0,0,0,0,0,0,0,0,0,0,0,0,0,0,0,0,0,0,0,0,0,0,0,0,0,0,0,0,0,0,0,0,0,0,0,0,0,0,0,0,0,0,0,0,0,0,0,0,0,0,0,0,0,0,0,0,0,0,0,0,0,0,0,0,0,0,0,0,0],"id":15,"left_children":[1,3,5,-1,7,9,11,13,15,17,19,21,23,25,27,-1,-1,29,31,-1,33,35,37,39,41,-1,43,-1,45,47,49,51,53,-1,55,57,59,61,63,65,67,69,71,-1,-1,-1,-1,-1,-1,-1,-1,-1,-1,-1,-1,-1,-1,-1,-1,-1,-1,-1,-1,-1,-1,-1,-1,-1,-1,-1,-1,-1,-1],"loss_changes":[1.0239898E5,7.818468E4,9.992195E4,0E0,8.247553E4,4.8167588E5,2.101864E5,3.557789E5,2.7384086E4,1.77327E5,2.804983E5,8.5417016E4,3.1719228E5,7.600975E4,7.919694E4,0E0,0E0,2.5072798E5,1.0089152E5,0E0,2.7500195E4,7.949828E4,2.5974836E4,6.4227825E5,4.532119E4,0E0,5.386932E4,0E0,3.1679438E4,2.686722E5,3.732745E5,6.3647734E3,8.864363E4,0E0,2.0897383E3,4.7652812E3,6.2328086E3,5.772172E3,1.9445E3,2.4194984E4,2.87705E4,9.03062E4,3.602086E5,0E0,0E0,0E0,0E0,0E0,0E0,0E0,0E0,0E0,0E0,0E0,0E0,0E0,0E0,0E0,0E0,0E0,0E0,0E0,0E0,0E0,0E0,0E0,0E0,0E0,0E0,0E0,0E0,0E0,0E0],"parents":[2147483647,0,0,1,1,2,2,4,4,5,5,6,6,7,7,8,8,9,9,10,10,11,11,12,12,13,13,14,14,17,17,18,18,20,20,21,21,22,22,23,23,24,24,26,26,28,28,29,29,30,30,31,31,32,32,34,34,35,35,36,36,37,37,38,38,39,39,40,40,41,41,42,42],"right_children":[2,4,6,-1,8,10,12,14,16,18,20,22,24,26,28,-1,-1,30,32,-1,34,36,38,40,42,-1,44,-1,46,48,50,52,54,-1,56,58,60,62,64,66,68,70,72,-1,-1,-1,-1,-1,-1,-1,-1,-1,-1,-1,-1,-1,-1,-1,-1,-1,-1,-1,-1,-1,-1,-1,-1,-1,-1,-1,-1,-1,-1],"split_conditions":[-1.595453E0,-7.595237E-1,-5.867708E-1,-4.4533295E1,1.8147072E0,3.0618832E-1,-4.6976253E-1,1.6616094E0,6.052707E-1,-6.955997E-1,-6.234545E-1,6.9194394E-1,-4.3534833E-1,-7.4311334E-1,-5.575396E-1,-4.283404E1,-1.9880807E0,-4.1081074E-1,-6.675467E-1,1.4583388E2,5.342541E-1,2.8595257E-1,-2.4844682E-1,-4.6254414E-1,2.097387E0,3.9815437E1,8.887909E-2,-5.0739055E0,1.9820409E-1,8.543673E-1,2.1757607E-1,-8.0703336E-1,-1.4281794E0,4.371935E1,-3.31487E-1,6.568944E-1,3.3086762E-1,-8.7439615E-1,-9.721745E-1,-3.0140135E-1,-1.6191334E-1,-8.5171056E-1,-6.7678815E-1,-3.1170418E1,-6.874932E0,3.1150146E1,1.066324E2,1.2318496E0,3.202489E1,1.151967E2,1.4660954E1,-7.2881975E0,-4.312247E1,5.216763E1,4.765531E-1,-3.179828E0,1.0305639E1,-5.05354E1,-1.1571989E1,-1.6680824E1,-6.286579E-1,6.0308867E0,-1.346199E1,2.6348283E0,2.1139532E1,-2.1522996E0,-5.8302284E1,1.3624959E2,4.665679E1,-4.7084885E0,3.346089E-1,2.5830072E1,-1.9380244E0],"split_indices":[4,1,3,0,2,5,3,2,1,4,1,4,3,1,1,0,0,5,4,0,2,1,5,4,5,0,2,0,0,2,1,0,2,0,1,5,5,1,1,1,1,0,1,0,0,0,0,0,0,0,0,0,0,0,0,0,0,0,0,0,0,0,0,0,0,0,0,0,0,0,0,0,0],"split_type":[0,0,0,0,0,0,0,0,0,0,0,0,0,0,0,0,0,0,0,0,0,0,0,0,0,0,0,0,0,0,0,0,0,0,0,0,0,0,0,0,0,0,0,0,0,0,0,0,0,0,0,0,0,0,0,0,0,0,0,0,0,0,0,0,0,0,0,0,0,0,0,0,0],"sum_hessian":[3.148E3,1.4E2,3.008E3,4E0,1.36E2,8.27E2,2.181E3,1.28E2,8E0,8.17E2,1E1,3.4E1,2.147E3,1.23E2,5E0,6E0,2E0,1.72E2,6.45E2,2E0,8E0,2.1E1,1.3E1,8E0,2.139E3,2E0,1.21E2,1E0,4E0,1.57E2,1.5E1,5E0,6.4E2,5E0,3E0,1.3E1,8E0,1E1,3E0,3E0,5E0,1.869E3,2.7E2,8E0,1.13E2,2E0,2E0,1.26E2,3.1E1,4E0,1.1E1,1E0,4E0,2E0,6.38E2,1E0,2E0,1.2E1,1E0,4E0,4E0,1E0,9E0,1E0,2E0,1E0,2E0,3E0,2E0,4.08E2,1.461E3,5.1E1,2.19E2],"tree_param":{"num_deleted":"0","num_feature":"6","num_nodes":"73","size_leaf_vector":"1"}},{"base_weights":[8.832659E-1,-9.901856E0,2.6386573E0,4.341651E0,-2.1958467E1,-4.7788196E0,6.474665E0,-7.129056E-3,1.7655476E2,-5.814494E1,-7.817126E0,-7.626876E0,3.9502247E1,1.347501E2,3.9830282E0,-2.2576413E0,1.1026976E2,-1.1792742E1,1.0007013E2,-4.4318836E1,-1.3252184E2,1.7849976E1,-3.1141876E1,-2.625496E1,-1.5760252E0,2.590203E2,-1.3849941E1,4.6771402E2,-3.8254602E0,1.0929848E1,-4.961553E0,-6.873368E0,3.870442E1,7.02825E1,-9.156985E0,-8.464627E1,-2.0866335E1,-1.6246338E2,-4.699369E1,9.142049E0,1.87546E2,-6.3707436E1,-1.0599131E1,-1.25884075E1,-1.16102234E2,1.4785382E1,-4.8573737E0,5.8145058E1,4.8844156E2,-7.4626686E1,7.383514E0,-3.011002E1,8.0461505E2,3.46955E1,-1.9243107E1,6.286078E1,4.411246E0,1.4573416E1,-7.9121833E0,-3.822655E0,1.370272E1,4.716425E1,-2.2466984E-1,-3.954537E0,-1.6610642E-1,-3.5048595E1,-1.9195425E1,5.142305E1,-1.2673384E1,-5.3585255E1,-9.83079E0,-4.2364335E0,-1.5973187E1,1.0090682E1,-4.857719E0,1.826664E1,8.512765E1,-2.3916384E1,-7.91124E0,6.578891E-1,-1.3968959E1,8.186229E0,-1.3495888E1,4.1681534E-1,-6.129234E1,1.9401065E-1,2.2402699E1,-6.855781E-1,-1.0737242E1,2.01169E1,7.1733785E0,1.9339372E2,5.0827076E1,-1.0357376E1,-2.9501692E1,7.0953364E0,-1.8319696E1,2.8028685E1,-4.30837E1,3.6989932E2,8.4652306E1,-1.8082037E1,3.4316375E0,8.89501E0,1.4477747E2,-6.2479815E0,3.8336823E0,3.7546314E1,1.1145986E0,-5.2846613E0,-2.1454169E-1],"categories":[],"categories_nodes":[],"categories_segments":[],"categories_sizes":[],"default_left":[0,0,0,0,0,0,0,0,0,0,0,0,0,0,0,0,0,0,0,0,0,0,0,0,0,0,0,0,0,0,0,0,0,0,0,0,0,0,0,0,0,0,0,0,0,0,0,0,0,0,0,0,0,0,0,0,0,0,0,0,0,0,0,0,0,0,0,0,0,0,0,0,0,0,0,0,0,0,0,0,0,0,0,0,0,0,0,0,0,0,0,0,0,0,0,0,0,0,0,0,0,0,0,0,0,0,0,0,0,0,0],"id":16,"left_children":[1,3,5,7,9,11,13,15,17,19,21,23,25,27,29,31,33,-1,-1,35,37,39,41,43,45,47,49,51,53,55,57,59,61,-1,63,65,67,69,71,73,75,77,79,81,83,85,87,89,91,93,95,97,99,-1,101,103,105,107,109,-1,-1,-1,-1,-1,-1,-1,-1,-1,-1,-1,-1,-1,-1,-1,-1,-1,-1,-1,-1,-1,-1,-1,-1,-1,-1,-1,-1,-1,-1,-1,-1,-1,-1,-1,-1,-1,-1,-1,-1,-1,-1,-1,-1,-1,-1,-1,-1,-1,-1,-1,-1],"loss_changes":[5.9643344E4,7.582757E4,7.711147E4,1.520314E5,1.21847805E5,1.1683151E5,5.702972E5,4.9636668E4,1.8257867E5,6.3025766E4,1.041273E5,9.790861E4,6.594464E5,1.5705716E6,1.0897932E5,3.7323684E4,6.138342E4,0E0,0E0,5.3088938E4,1.7973672E4,1.2093459E5,6.020247E4,2.6008169E5,3.534449E4,4.7853506E5,5.9914023E4,1.7014012E6,4.82769E4,3.3383903E5,4.432555E4,5.516898E4,9.362979E4,0E0,9.658113E1,6.488422E3,1.6344167E5,8.8125E3,6.9958984E1,5.0187094E4,3.1466453E4,1.8824297E4,2.6325285E4,2.4151958E5,2.904594E5,9.309636E4,4.351944E4,5.3206445E2,1.3994138E5,8.015836E3,4.0416918E4,8.352733E4,9.9490675E5,0E0,2.9643902E4,1.519044E6,1.8568448E5,1.2080547E5,4.6567668E4,0E0,0E0,0E0,0E0,0E0,0E0,0E0,0E0,0E0,0E0,0E0,0E0,0E0,0E0,0E0,0E0,0E0,0E0,0E0,0E0,0E0,0E0,0E0,0E0,0E0,0E0,0E0,0E0,0E0,0E0,0E0,0E0,0E0,0E0,0E0,0E0,0E0,0E0,0E0,0E0,0E0,0E0,0E0,0E0,0E0,0E0,0E0,0E0,0E0,0E0,0E0,0E0],"parents":[2147483647,0,0,1,1,2,2,3,3,4,4,5,5,6,6,7,7,8,8,9,9,10,10,11,11,12,12,13,13,14,14,15,15,16,16,19,19,20,20,21,21,22,22,23,23,24,24,25,25,26,26,27,27,28,28,29,29,30,30,31,31,32,32,34,34,35,35,36,36,37,37,38,38,39,39,40,40,41,41,42,42,43,43,44,44,45,45,46,46,47,47,48,48,49,49,50,50,51,51,52,52,54,54,55,55,56,56,57,57,58,58],"right_children":[2,4,6,8,10,12,14,16,18,20,22,24,26,28,30,32,34,-1,-1,36,38,40,42,44,46,48,50,52,54,56,58,60,62,-1,64,66,68,70,72,74,76,78,80,82,84,86,88,90,92,94,96,98,100,-1,102,104,106,108,110,-1,-1,-1,-1,-1,-1,-1,-1,-1,-1,-1,-1,-1,-1,-1,-1,-1,-1,-1,-1,-1,-1,-1,-1,-1,-1,-1,-1,-1,-1,-1,-1,-1,-1,-1,-1,-1,-1,-1,-1,-1,-1,-1,-1,-1,-1,-1,-1,-1,-1,-1,-1],"split_conditions":[-9.912349E-1,4.5074627E-1,-3.453615E-1,4.368283E-1,8.961212E-1,8.492575E-2,-3.1474197E-1,1.7172295E0,-5.8995E-1,-1.1854478E0,2.3193513E-1,-4.1814125E-1,1.8338785E-1,-4.1814125E-1,1.39516E-1,6.353563E-1,1.806584E0,-1.1792742E1,1.0007013E2,-6.234545E-1,5.7600796E-1,2.2031112E-1,7.7074176E-1,-2.5969166E-1,-8.5171056E-1,-7.6011693E-1,3.3244857E-1,-8.292677E-1,-1.745255E0,-5.865312E-1,-1.0304195E0,2.6981267E-1,6.4492905E-1,7.02825E1,-9.9610627E-1,-6.3150924E-1,-5.632832E-1,5.3328323E-1,-1.2984828E0,-3.485811E-1,9.7962904E-1,3.9567582E-2,1.5224298E0,-5.6278336E-1,-8.575427E-1,-9.6340364E-1,1.6856321E0,6.226377E-1,1.364816E-1,-3.2248476E-1,1.4491662E0,-8.344643E-1,-8.149086E-1,3.46955E1,7.693627E-2,5.7600796E-1,2.4197674E-1,-1.8948026E-1,1.5352686E-1,-3.822655E0,1.370272E1,4.716425E1,-2.2466984E-1,-3.954537E0,-1.6610642E-1,-3.5048595E1,-1.9195425E1,5.142305E1,-1.2673384E1,-5.3585255E1,-9.83079E0,-4.2364335E0,-1.5973187E1,1.0090682E1,-4.857719E0,1.826664E1,8.512765E1,-2.3916384E1,-7.91124E0,6.578891E-1,-1.3968959E1,8.186229E0,-1.3495888E1,4.1681534E-1,-6.129234E1,1.9401065E-1,2.2402699E1,-6.855781E-1,-1.0737242E1,2.01169E1,7.1733785E0,1.9339372E2,5.0827076E1,-1.0357376E1,-2.9501692E1,7.0953364E0,-1.8319696E1,2.8028685E1,-4.30837E1,3.6989932E2,8.4652306E1,-1.8082037E1,3.4316375E0,8.89501E0,1.4477747E2,-6.2479815E0,3.8336823E0,3.7546314E1,1.1145986E0,-5.2846613E0,-2.1454169E-1],"split_indices":[4,2,2,2,2,1,2,0,1,4,1,3,1,3,4,1,0,0,0,1,2,1,1,1,0,2,1,1,0,1,0,2,1,0,1,3,1,0,0,1,2,3,2,5,2,0,5,0,1,5,0,1,1,0,4,2,2,2,0,0,0,0,0,0,0,0,0,0,0,0,0,0,0,0,0,0,0,0,0,0,0,0,0,0,0,0,0,0,0,0,0,0,0,0,0,0,0,0,0,0,0,0,0,0,0,0,0,0,0,0,0],"split_type":[0,0,0,0,0,0,0,0,0,0,0,0,0,0,0,0,0,0,0,0,0,0,0,0,0,0,0,0,0,0,0,0,0,0,0,0,0,0,0,0,0,0,0,0,0,0,0,0,0,0,0,0,0,0,0,0,0,0,0,0,0,0,0,0,0,0,0,0,0,0,0,0,0,0,0,0,0,0,0,0,0,0,0,0,0,0,0,0,0,0,0,0,0,0,0,0,0,0,0,0,0,0,0,0,0,0,0,0,0,0,0],"sum_hessian":[3.148E3,4.4E2,2.708E3,2.02E2,2.38E2,9.23E2,1.785E3,1.98E2,4E0,6.6E1,1.72E2,8.68E2,5.5E1,3.3E1,1.752E3,1.95E2,3E0,2E0,2E0,5.7E1,9E0,8.2E1,9E1,2.12E2,6.56E2,1E1,4.5E1,9E0,2.4E1,9.86E2,7.66E2,1.76E2,1.9E1,1E0,2E0,2E1,3.7E1,6E0,3E0,7.9E1,3E0,3.4E1,5.6E1,1.85E2,2.7E1,